<?xml version="1.0" encoding="UTF-8" standalone="yes"?>
<PMML xmlns="http://www.dmg.org/PMML-4_4" xmlns:data="http://jpmml.org/jpmml-model/InlineTable" version="4.4">
	<Header>
		<Application name="SkLearn2PMML package" version="0.105.1"/>
		<Timestamp>2024-04-02T14:10:54Z</Timestamp>
	</Header>
	<DataDictionary>
		<DataField name="LUNG_CANCER" optype="categorical" dataType="string">
			<Value value="NO"/>
			<Value value="YES"/>
		</DataField>
		<DataField name="GENDER" optype="continuous" dataType="double"/>
		<DataField name="AGE" optype="continuous" dataType="double"/>
		<DataField name="SMOKING" optype="continuous" dataType="double"/>
		<DataField name="YELLOW_FINGERS" optype="continuous" dataType="double"/>
		<DataField name="ANXIETY" optype="continuous" dataType="double"/>
		<DataField name="PEER_PRESSURE" optype="continuous" dataType="double"/>
		<DataField name="CHRONIC DISEASE" optype="continuous" dataType="double"/>
		<DataField name="WHEEZING" optype="continuous" dataType="double"/>
		<DataField name="ALCOHOL CONSUMING" optype="continuous" dataType="double"/>
		<DataField name="COUGHING" optype="continuous" dataType="double"/>
		<DataField name="SHORTNESS OF BREATH" optype="continuous" dataType="double"/>
		<DataField name="SWALLOWING DIFFICULTY" optype="continuous" dataType="double"/>
		<DataField name="CHEST PAIN" optype="continuous" dataType="double"/>
	</DataDictionary>
	<NeuralNetwork functionName="classification" algorithmName="sklearn.neural_network._multilayer_perceptron.MLPClassifier" activationFunction="rectifier">
		<MiningSchema>
			<MiningField name="LUNG_CANCER" usageType="target"/>
			<MiningField name="GENDER"/>
			<MiningField name="AGE"/>
			<MiningField name="SMOKING"/>
			<MiningField name="YELLOW_FINGERS"/>
			<MiningField name="ANXIETY"/>
			<MiningField name="PEER_PRESSURE"/>
			<MiningField name="CHRONIC DISEASE"/>
			<MiningField name="WHEEZING"/>
			<MiningField name="ALCOHOL CONSUMING"/>
			<MiningField name="COUGHING"/>
			<MiningField name="SHORTNESS OF BREATH"/>
			<MiningField name="SWALLOWING DIFFICULTY"/>
			<MiningField name="CHEST PAIN"/>
		</MiningSchema>
		<Output>
			<OutputField name="probability(NO)" optype="continuous" dataType="double" feature="probability" value="NO"/>
			<OutputField name="probability(YES)" optype="continuous" dataType="double" feature="probability" value="YES"/>
		</Output>
		<NeuralInputs>
			<NeuralInput id="input/1">
				<DerivedField optype="continuous" dataType="double">
					<FieldRef field="GENDER"/>
				</DerivedField>
			</NeuralInput>
			<NeuralInput id="input/2">
				<DerivedField optype="continuous" dataType="double">
					<FieldRef field="AGE"/>
				</DerivedField>
			</NeuralInput>
			<NeuralInput id="input/3">
				<DerivedField optype="continuous" dataType="double">
					<FieldRef field="SMOKING"/>
				</DerivedField>
			</NeuralInput>
			<NeuralInput id="input/4">
				<DerivedField optype="continuous" dataType="double">
					<FieldRef field="YELLOW_FINGERS"/>
				</DerivedField>
			</NeuralInput>
			<NeuralInput id="input/5">
				<DerivedField optype="continuous" dataType="double">
					<FieldRef field="ANXIETY"/>
				</DerivedField>
			</NeuralInput>
			<NeuralInput id="input/6">
				<DerivedField optype="continuous" dataType="double">
					<FieldRef field="PEER_PRESSURE"/>
				</DerivedField>
			</NeuralInput>
			<NeuralInput id="input/7">
				<DerivedField optype="continuous" dataType="double">
					<FieldRef field="CHRONIC DISEASE"/>
				</DerivedField>
			</NeuralInput>
			<NeuralInput id="input/8">
				<DerivedField optype="continuous" dataType="double">
					<FieldRef field="WHEEZING"/>
				</DerivedField>
			</NeuralInput>
			<NeuralInput id="input/9">
				<DerivedField optype="continuous" dataType="double">
					<FieldRef field="ALCOHOL CONSUMING"/>
				</DerivedField>
			</NeuralInput>
			<NeuralInput id="input/10">
				<DerivedField optype="continuous" dataType="double">
					<FieldRef field="COUGHING"/>
				</DerivedField>
			</NeuralInput>
			<NeuralInput id="input/11">
				<DerivedField optype="continuous" dataType="double">
					<FieldRef field="SHORTNESS OF BREATH"/>
				</DerivedField>
			</NeuralInput>
			<NeuralInput id="input/12">
				<DerivedField optype="continuous" dataType="double">
					<FieldRef field="SWALLOWING DIFFICULTY"/>
				</DerivedField>
			</NeuralInput>
			<NeuralInput id="input/13">
				<DerivedField optype="continuous" dataType="double">
					<FieldRef field="CHEST PAIN"/>
				</DerivedField>
			</NeuralInput>
		</NeuralInputs>
		<NeuralLayer>
			<Neuron id="1/1" bias="-0.13919080158931801">
				<Con from="input/1" weight="0.10252604756923292"/>
				<Con from="input/2" weight="0.09355690487847558"/>
				<Con from="input/3" weight="0.19343258699596233"/>
				<Con from="input/4" weight="-0.09911019850576873"/>
				<Con from="input/5" weight="0.03383620582392257"/>
				<Con from="input/6" weight="0.09210569129794448"/>
				<Con from="input/7" weight="-0.09280562802638344"/>
				<Con from="input/8" weight="-0.2048253233098013"/>
				<Con from="input/9" weight="-0.10216500683108286"/>
				<Con from="input/10" weight="0.19885530618293001"/>
				<Con from="input/11" weight="0.008719489239558958"/>
				<Con from="input/12" weight="0.0025919859128775693"/>
				<Con from="input/13" weight="-0.14284848557944962"/>
			</Neuron>
			<Neuron id="1/2" bias="0.08034542651389959">
				<Con from="input/1" weight="0.027527659907385083"/>
				<Con from="input/2" weight="-0.14332061989731051"/>
				<Con from="input/3" weight="-0.18381865651323767"/>
				<Con from="input/4" weight="0.18884280955187172"/>
				<Con from="input/5" weight="-0.003174514254230928"/>
				<Con from="input/6" weight="-0.09906863755694961"/>
				<Con from="input/7" weight="-0.014695753718938605"/>
				<Con from="input/8" weight="-0.20622706155180273"/>
				<Con from="input/9" weight="0.12453527992794726"/>
				<Con from="input/10" weight="0.192773610388635"/>
				<Con from="input/11" weight="0.1542730564717889"/>
				<Con from="input/12" weight="-0.15577384164722619"/>
				<Con from="input/13" weight="-0.007658325207396014"/>
			</Neuron>
			<Neuron id="1/3" bias="0.16364400334949875">
				<Con from="input/1" weight="0.12082022686609763"/>
				<Con from="input/2" weight="-0.008932670988894878"/>
				<Con from="input/3" weight="-0.07664369495428139"/>
				<Con from="input/4" weight="0.18782151003631906"/>
				<Con from="input/5" weight="-0.058221252702238116"/>
				<Con from="input/6" weight="0.008795730764531868"/>
				<Con from="input/7" weight="-0.1835489216968409"/>
				<Con from="input/8" weight="0.017701681254087963"/>
				<Con from="input/9" weight="-0.18741417240413852"/>
				<Con from="input/10" weight="0.1683577119076985"/>
				<Con from="input/11" weight="0.037031851311860535"/>
				<Con from="input/12" weight="-0.1938264740471868"/>
				<Con from="input/13" weight="0.021266733791033162"/>
			</Neuron>
			<Neuron id="1/4" bias="0.1738677201103737">
				<Con from="input/1" weight="0.09834936674020756"/>
				<Con from="input/2" weight="0.06628158854428608"/>
				<Con from="input/3" weight="0.07443691630224947"/>
				<Con from="input/4" weight="-0.07303681159842935"/>
				<Con from="input/5" weight="0.20568267895522302"/>
				<Con from="input/6" weight="-0.20866534871474707"/>
				<Con from="input/7" weight="0.1808732692712592"/>
				<Con from="input/8" weight="0.21003800278109738"/>
				<Con from="input/9" weight="-0.14996433804691148"/>
				<Con from="input/10" weight="0.05815710619243781"/>
				<Con from="input/11" weight="-0.004163975387401776"/>
				<Con from="input/12" weight="-0.03341094697358809"/>
				<Con from="input/13" weight="0.03357685604207552"/>
			</Neuron>
			<Neuron id="1/5" bias="0.17262614872395415">
				<Con from="input/1" weight="0.21596325232180982"/>
				<Con from="input/2" weight="0.06819548307964421"/>
				<Con from="input/3" weight="0.11479812125271088"/>
				<Con from="input/4" weight="0.12565489356748805"/>
				<Con from="input/5" weight="-0.1599571506454306"/>
				<Con from="input/6" weight="-0.07710233812527385"/>
				<Con from="input/7" weight="-0.15294580822002307"/>
				<Con from="input/8" weight="-0.11321073280528267"/>
				<Con from="input/9" weight="0.1722438212793924"/>
				<Con from="input/10" weight="0.20545800258089789"/>
				<Con from="input/11" weight="-0.2123480014789024"/>
				<Con from="input/12" weight="0.01619334828024992"/>
				<Con from="input/13" weight="0.021400181966365846"/>
			</Neuron>
			<Neuron id="1/6" bias="-0.0440576456484377">
				<Con from="input/1" weight="-0.02903800221481857"/>
				<Con from="input/2" weight="-0.126868363121781"/>
				<Con from="input/3" weight="-0.0781543996562694"/>
				<Con from="input/4" weight="0.020380966557793447"/>
				<Con from="input/5" weight="0.09284695150823873"/>
				<Con from="input/6" weight="0.04602029244019478"/>
				<Con from="input/7" weight="-0.20529608735139837"/>
				<Con from="input/8" weight="-0.10529180773943408"/>
				<Con from="input/9" weight="-0.04499191170342572"/>
				<Con from="input/10" weight="-0.1401534895484606"/>
				<Con from="input/11" weight="0.0846825690109482"/>
				<Con from="input/12" weight="-0.12225957588942907"/>
				<Con from="input/13" weight="-0.1551587469017605"/>
			</Neuron>
			<Neuron id="1/7" bias="-0.19772022433866326">
				<Con from="input/1" weight="-0.10371523657444878"/>
				<Con from="input/2" weight="-0.10915228860396345"/>
				<Con from="input/3" weight="0.15547006026902715"/>
				<Con from="input/4" weight="-0.02324552643006986"/>
				<Con from="input/5" weight="-0.11610804300709801"/>
				<Con from="input/6" weight="-0.03447015334167427"/>
				<Con from="input/7" weight="-0.11582582291145387"/>
				<Con from="input/8" weight="-0.03194843324971623"/>
				<Con from="input/9" weight="0.14416768705543637"/>
				<Con from="input/10" weight="0.136336165652845"/>
				<Con from="input/11" weight="-0.10706015224525321"/>
				<Con from="input/12" weight="-0.057289213259205204"/>
				<Con from="input/13" weight="-0.18157192213217846"/>
			</Neuron>
			<Neuron id="1/8" bias="0.015487547285708957">
				<Con from="input/1" weight="-0.23102896686785573"/>
				<Con from="input/2" weight="-0.009313510369617414"/>
				<Con from="input/3" weight="0.19270470139695742"/>
				<Con from="input/4" weight="-0.09106444048184562"/>
				<Con from="input/5" weight="0.2147653075662818"/>
				<Con from="input/6" weight="-0.03925384654792893"/>
				<Con from="input/7" weight="-0.07449350070840045"/>
				<Con from="input/8" weight="-0.11997047975254248"/>
				<Con from="input/9" weight="0.029257586600065694"/>
				<Con from="input/10" weight="-0.06768712266410944"/>
				<Con from="input/11" weight="0.10698697425286383"/>
				<Con from="input/12" weight="-0.15029905534880827"/>
				<Con from="input/13" weight="-0.09017395989353155"/>
			</Neuron>
			<Neuron id="1/9" bias="-0.16319294626026598">
				<Con from="input/1" weight="0.10696766605136715"/>
				<Con from="input/2" weight="-0.039853480862007"/>
				<Con from="input/3" weight="-0.09228664888980967"/>
				<Con from="input/4" weight="-0.1992930745770362"/>
				<Con from="input/5" weight="-0.11109208423558718"/>
				<Con from="input/6" weight="0.03378920828100176"/>
				<Con from="input/7" weight="0.17445468636541625"/>
				<Con from="input/8" weight="-0.07532905771892316"/>
				<Con from="input/9" weight="-0.16121498489591748"/>
				<Con from="input/10" weight="-0.004569496398462788"/>
				<Con from="input/11" weight="0.0741159835441217"/>
				<Con from="input/12" weight="-0.1448304153863049"/>
				<Con from="input/13" weight="-0.002999380882032261"/>
			</Neuron>
			<Neuron id="1/10" bias="0.13850788033592565">
				<Con from="input/1" weight="-0.057283180269449285"/>
				<Con from="input/2" weight="0.16900191468451067"/>
				<Con from="input/3" weight="-0.049318181797700054"/>
				<Con from="input/4" weight="4.1035717556889533E-4"/>
				<Con from="input/5" weight="0.007570231949770314"/>
				<Con from="input/6" weight="-0.17185772859249682"/>
				<Con from="input/7" weight="-0.0999017747751249"/>
				<Con from="input/8" weight="0.11345118124184965"/>
				<Con from="input/9" weight="-0.2065895438714447"/>
				<Con from="input/10" weight="0.190227354739136"/>
				<Con from="input/11" weight="0.14036658883674671"/>
				<Con from="input/12" weight="0.23448968240035803"/>
				<Con from="input/13" weight="-0.1882949389400393"/>
			</Neuron>
			<Neuron id="1/11" bias="0.16938407309067174">
				<Con from="input/1" weight="0.18051944925481758"/>
				<Con from="input/2" weight="0.08684586483072161"/>
				<Con from="input/3" weight="-0.17594931454569915"/>
				<Con from="input/4" weight="0.023907438822822806"/>
				<Con from="input/5" weight="0.18542455253998083"/>
				<Con from="input/6" weight="0.20758625089318766"/>
				<Con from="input/7" weight="-0.22283202345692843"/>
				<Con from="input/8" weight="0.017361477040047545"/>
				<Con from="input/9" weight="0.17843301408933224"/>
				<Con from="input/10" weight="-0.2227018485484124"/>
				<Con from="input/11" weight="0.1220038662141359"/>
				<Con from="input/12" weight="-0.10383908520902176"/>
				<Con from="input/13" weight="-0.027621176831987282"/>
			</Neuron>
			<Neuron id="1/12" bias="-0.0312590762864353">
				<Con from="input/1" weight="-0.20202813006468778"/>
				<Con from="input/2" weight="0.21102159167721274"/>
				<Con from="input/3" weight="0.18126909736600338"/>
				<Con from="input/4" weight="0.09395143245868527"/>
				<Con from="input/5" weight="-0.13191080458611076"/>
				<Con from="input/6" weight="0.12112277596284818"/>
				<Con from="input/7" weight="-0.0910419533934988"/>
				<Con from="input/8" weight="-0.021496631735433164"/>
				<Con from="input/9" weight="-0.0501026775030621"/>
				<Con from="input/10" weight="-0.17010507640506697"/>
				<Con from="input/11" weight="0.13856354926686512"/>
				<Con from="input/12" weight="0.06377026127377677"/>
				<Con from="input/13" weight="0.22285569477924796"/>
			</Neuron>
			<Neuron id="1/13" bias="0.11023389834215297">
				<Con from="input/1" weight="0.004941719471938417"/>
				<Con from="input/2" weight="-0.08092008322488707"/>
				<Con from="input/3" weight="0.04042663489380981"/>
				<Con from="input/4" weight="0.07440572523227221"/>
				<Con from="input/5" weight="0.014331218264452213"/>
				<Con from="input/6" weight="0.08278029925823165"/>
				<Con from="input/7" weight="-0.1827042098853888"/>
				<Con from="input/8" weight="0.164453087493464"/>
				<Con from="input/9" weight="-0.08452480898609796"/>
				<Con from="input/10" weight="-0.16754324779381272"/>
				<Con from="input/11" weight="-0.12553451109165076"/>
				<Con from="input/12" weight="-0.030400552067893768"/>
				<Con from="input/13" weight="-0.1727768368364328"/>
			</Neuron>
			<Neuron id="1/14" bias="0.05534714095741894">
				<Con from="input/1" weight="-0.13389633290126038"/>
				<Con from="input/2" weight="-0.16670226803642302"/>
				<Con from="input/3" weight="0.06168588717916937"/>
				<Con from="input/4" weight="0.11827625465760042"/>
				<Con from="input/5" weight="0.0257608414824329"/>
				<Con from="input/6" weight="0.18964713410705245"/>
				<Con from="input/7" weight="0.0159891613336316"/>
				<Con from="input/8" weight="0.10499785383790326"/>
				<Con from="input/9" weight="-0.15255060744107551"/>
				<Con from="input/10" weight="-0.14597419729866412"/>
				<Con from="input/11" weight="-0.041564394115934766"/>
				<Con from="input/12" weight="0.015360357564630073"/>
				<Con from="input/13" weight="-0.010435237886195397"/>
			</Neuron>
			<Neuron id="1/15" bias="0.038425621139359836">
				<Con from="input/1" weight="-0.15025478274550846"/>
				<Con from="input/2" weight="0.10139699235235956"/>
				<Con from="input/3" weight="0.025535784939181797"/>
				<Con from="input/4" weight="0.08193701970681377"/>
				<Con from="input/5" weight="-0.031303106313000505"/>
				<Con from="input/6" weight="-0.14974658398237983"/>
				<Con from="input/7" weight="-0.012846181174724604"/>
				<Con from="input/8" weight="-0.0446676604793033"/>
				<Con from="input/9" weight="-0.15465772900411096"/>
				<Con from="input/10" weight="0.0865245419681942"/>
				<Con from="input/11" weight="0.13673630464077294"/>
				<Con from="input/12" weight="0.11447531416562376"/>
				<Con from="input/13" weight="0.038393744196724616"/>
			</Neuron>
			<Neuron id="1/16" bias="-0.007672588836616007">
				<Con from="input/1" weight="0.001132507547346598"/>
				<Con from="input/2" weight="-0.06357104838291072"/>
				<Con from="input/3" weight="0.09772234263535086"/>
				<Con from="input/4" weight="0.05724801506914026"/>
				<Con from="input/5" weight="0.1562962058032917"/>
				<Con from="input/6" weight="0.037992074112889705"/>
				<Con from="input/7" weight="0.02134653112914645"/>
				<Con from="input/8" weight="-0.04926985216578918"/>
				<Con from="input/9" weight="0.10595186122977102"/>
				<Con from="input/10" weight="-0.002832647188617611"/>
				<Con from="input/11" weight="-0.05536233516587866"/>
				<Con from="input/12" weight="0.06861329775615063"/>
				<Con from="input/13" weight="-0.17390460126617094"/>
			</Neuron>
			<Neuron id="1/17" bias="-0.0570964153113798">
				<Con from="input/1" weight="-0.10183989581123316"/>
				<Con from="input/2" weight="0.17645881340544264"/>
				<Con from="input/3" weight="0.021098508286415178"/>
				<Con from="input/4" weight="-0.14996584307908373"/>
				<Con from="input/5" weight="0.14350542793467666"/>
				<Con from="input/6" weight="0.12673432408305735"/>
				<Con from="input/7" weight="0.09528097128120161"/>
				<Con from="input/8" weight="0.06603778326002938"/>
				<Con from="input/9" weight="0.18468691142433868"/>
				<Con from="input/10" weight="-0.18881862317989767"/>
				<Con from="input/11" weight="-0.07405684089102235"/>
				<Con from="input/12" weight="0.20544138752058627"/>
				<Con from="input/13" weight="-0.03719585180022406"/>
			</Neuron>
			<Neuron id="1/18" bias="0.18864052428211453">
				<Con from="input/1" weight="0.10024727826370819"/>
				<Con from="input/2" weight="-0.08527571417119882"/>
				<Con from="input/3" weight="0.15996952879966286"/>
				<Con from="input/4" weight="-0.19223987154369618"/>
				<Con from="input/5" weight="-0.16903131029505675"/>
				<Con from="input/6" weight="0.10664068062364906"/>
				<Con from="input/7" weight="0.18358290837941044"/>
				<Con from="input/8" weight="-0.2055151639824849"/>
				<Con from="input/9" weight="-0.20038364186831384"/>
				<Con from="input/10" weight="-0.16100406352468322"/>
				<Con from="input/11" weight="-0.08956288472127891"/>
				<Con from="input/12" weight="-0.1022634633439488"/>
				<Con from="input/13" weight="0.055998376961545124"/>
			</Neuron>
			<Neuron id="1/19" bias="-0.06830886161261703">
				<Con from="input/1" weight="0.18909789919227124"/>
				<Con from="input/2" weight="0.010328257499966484"/>
				<Con from="input/3" weight="0.1557765018665998"/>
				<Con from="input/4" weight="0.03332056681182061"/>
				<Con from="input/5" weight="-0.09276229401323034"/>
				<Con from="input/6" weight="-0.004482471262203247"/>
				<Con from="input/7" weight="0.18102694829278232"/>
				<Con from="input/8" weight="0.002557961446875525"/>
				<Con from="input/9" weight="-0.06695655922505919"/>
				<Con from="input/10" weight="-0.0647406433457861"/>
				<Con from="input/11" weight="0.20581029949897564"/>
				<Con from="input/12" weight="0.1854582485099506"/>
				<Con from="input/13" weight="-0.18552467752650573"/>
			</Neuron>
			<Neuron id="1/20" bias="0.024146235691254223">
				<Con from="input/1" weight="0.11526790719406906"/>
				<Con from="input/2" weight="0.0685736900515968"/>
				<Con from="input/3" weight="-0.001057150391262439"/>
				<Con from="input/4" weight="-0.20145737592040389"/>
				<Con from="input/5" weight="0.11505149572204441"/>
				<Con from="input/6" weight="0.14424091461620936"/>
				<Con from="input/7" weight="0.12917828612711882"/>
				<Con from="input/8" weight="-0.09544983471093836"/>
				<Con from="input/9" weight="-0.17074179420764352"/>
				<Con from="input/10" weight="0.09896175894712372"/>
				<Con from="input/11" weight="0.14851880888900357"/>
				<Con from="input/12" weight="-0.14536037044109704"/>
				<Con from="input/13" weight="-0.05171412803635547"/>
			</Neuron>
			<Neuron id="1/21" bias="0.1846834133356962">
				<Con from="input/1" weight="-0.11076848962855858"/>
				<Con from="input/2" weight="-0.2028977710549754"/>
				<Con from="input/3" weight="0.12236174792193338"/>
				<Con from="input/4" weight="-0.09814325238627913"/>
				<Con from="input/5" weight="-0.024658209577547066"/>
				<Con from="input/6" weight="-0.12859048024555952"/>
				<Con from="input/7" weight="0.029563520887975977"/>
				<Con from="input/8" weight="0.19832428481016448"/>
				<Con from="input/9" weight="-0.19878696488246636"/>
				<Con from="input/10" weight="-0.12245549763352592"/>
				<Con from="input/11" weight="-0.00344140837766283"/>
				<Con from="input/12" weight="0.15064749225579133"/>
				<Con from="input/13" weight="0.13899419344324407"/>
			</Neuron>
			<Neuron id="1/22" bias="0.057642682872775464">
				<Con from="input/1" weight="-0.13683161843943614"/>
				<Con from="input/2" weight="-0.03733387038141266"/>
				<Con from="input/3" weight="0.15310301599646303"/>
				<Con from="input/4" weight="0.16922288417150919"/>
				<Con from="input/5" weight="-0.19658837718757316"/>
				<Con from="input/6" weight="0.08638778202975601"/>
				<Con from="input/7" weight="-0.1504269078078838"/>
				<Con from="input/8" weight="-0.1349092726802579"/>
				<Con from="input/9" weight="0.08775610947248438"/>
				<Con from="input/10" weight="4.89132651287724E-4"/>
				<Con from="input/11" weight="-0.19425269998517455"/>
				<Con from="input/12" weight="0.11658324007820711"/>
				<Con from="input/13" weight="-0.19985664082385657"/>
			</Neuron>
			<Neuron id="1/23" bias="0.03892509763901802">
				<Con from="input/1" weight="-0.0819235999636145"/>
				<Con from="input/2" weight="0.1354383876769202"/>
				<Con from="input/3" weight="0.21165075831957678"/>
				<Con from="input/4" weight="0.04253544064741938"/>
				<Con from="input/5" weight="-0.08535856633252822"/>
				<Con from="input/6" weight="-0.21181404856247354"/>
				<Con from="input/7" weight="0.17408203226542335"/>
				<Con from="input/8" weight="-0.24150710094798578"/>
				<Con from="input/9" weight="-0.07773975241056397"/>
				<Con from="input/10" weight="0.0030661290802964907"/>
				<Con from="input/11" weight="0.19347723033813682"/>
				<Con from="input/12" weight="0.03939844824160373"/>
				<Con from="input/13" weight="0.09591801571297076"/>
			</Neuron>
			<Neuron id="1/24" bias="-0.17219051541755231">
				<Con from="input/1" weight="-0.1679586001683387"/>
				<Con from="input/2" weight="0.1382655686250536"/>
				<Con from="input/3" weight="0.10826678690059247"/>
				<Con from="input/4" weight="0.12835254790959724"/>
				<Con from="input/5" weight="-0.07471770500312008"/>
				<Con from="input/6" weight="0.03484295262608194"/>
				<Con from="input/7" weight="-0.18942807902176323"/>
				<Con from="input/8" weight="0.010108128829737245"/>
				<Con from="input/9" weight="-0.002637462208130499"/>
				<Con from="input/10" weight="0.10541893117455069"/>
				<Con from="input/11" weight="-0.20413321470528017"/>
				<Con from="input/12" weight="-0.12922343331708322"/>
				<Con from="input/13" weight="0.1236720404166783"/>
			</Neuron>
			<Neuron id="1/25" bias="-0.1632050244117149">
				<Con from="input/1" weight="0.10337692742865165"/>
				<Con from="input/2" weight="0.21215399849256034"/>
				<Con from="input/3" weight="0.08434129191354933"/>
				<Con from="input/4" weight="-0.08463047771217759"/>
				<Con from="input/5" weight="0.14531253939434435"/>
				<Con from="input/6" weight="-0.07569353861290531"/>
				<Con from="input/7" weight="-0.19669193528058618"/>
				<Con from="input/8" weight="-0.05499589260721943"/>
				<Con from="input/9" weight="0.04208455898574501"/>
				<Con from="input/10" weight="-0.025969287768553718"/>
				<Con from="input/11" weight="-0.09586600997136595"/>
				<Con from="input/12" weight="-0.07089453807297659"/>
				<Con from="input/13" weight="0.12367830892583274"/>
			</Neuron>
			<Neuron id="1/26" bias="0.20584686888733228">
				<Con from="input/1" weight="-0.04761445804991784"/>
				<Con from="input/2" weight="0.1005117244937817"/>
				<Con from="input/3" weight="0.0255129887788566"/>
				<Con from="input/4" weight="0.08586694695262984"/>
				<Con from="input/5" weight="0.14643844475507423"/>
				<Con from="input/6" weight="0.027333395531332124"/>
				<Con from="input/7" weight="0.1275822377883446"/>
				<Con from="input/8" weight="-0.1835362154511707"/>
				<Con from="input/9" weight="-0.20916550342258658"/>
				<Con from="input/10" weight="-0.24139399192112893"/>
				<Con from="input/11" weight="0.11903978524037558"/>
				<Con from="input/12" weight="0.02820677329329681"/>
				<Con from="input/13" weight="-0.059827298563120815"/>
			</Neuron>
			<Neuron id="1/27" bias="0.17195585467699623">
				<Con from="input/1" weight="-0.07815052670056291"/>
				<Con from="input/2" weight="0.03806978395250484"/>
				<Con from="input/3" weight="0.043504391455306435"/>
				<Con from="input/4" weight="0.027211479317588223"/>
				<Con from="input/5" weight="0.0390545883033961"/>
				<Con from="input/6" weight="-0.18010817802269005"/>
				<Con from="input/7" weight="-0.1920619949724169"/>
				<Con from="input/8" weight="-0.17791265504397996"/>
				<Con from="input/9" weight="-0.14939449763774218"/>
				<Con from="input/10" weight="0.016658985157560577"/>
				<Con from="input/11" weight="-0.06046583034079648"/>
				<Con from="input/12" weight="-0.02404042847326686"/>
				<Con from="input/13" weight="-0.20458722364039242"/>
			</Neuron>
			<Neuron id="1/28" bias="-0.1744748402326958">
				<Con from="input/1" weight="0.1409877060488162"/>
				<Con from="input/2" weight="0.21493193115624057"/>
				<Con from="input/3" weight="-0.03926904889257143"/>
				<Con from="input/4" weight="0.03726433317239368"/>
				<Con from="input/5" weight="-0.21546529426144967"/>
				<Con from="input/6" weight="-0.22139583657449155"/>
				<Con from="input/7" weight="-0.20946500277355712"/>
				<Con from="input/8" weight="-0.06437951032291711"/>
				<Con from="input/9" weight="-0.1973674847066436"/>
				<Con from="input/10" weight="-0.13916848143736588"/>
				<Con from="input/11" weight="0.05974421131051894"/>
				<Con from="input/12" weight="0.024372327844404528"/>
				<Con from="input/13" weight="0.01401263500972662"/>
			</Neuron>
			<Neuron id="1/29" bias="-0.21471951451283458">
				<Con from="input/1" weight="-0.08598914901297423"/>
				<Con from="input/2" weight="0.06422044167666424"/>
				<Con from="input/3" weight="-0.11744977751431292"/>
				<Con from="input/4" weight="-0.1693289653141228"/>
				<Con from="input/5" weight="-0.144716039597125"/>
				<Con from="input/6" weight="-0.008148431740024836"/>
				<Con from="input/7" weight="0.11510085268025895"/>
				<Con from="input/8" weight="-0.21992524092042662"/>
				<Con from="input/9" weight="-0.08712703634239062"/>
				<Con from="input/10" weight="-0.06405888073507608"/>
				<Con from="input/11" weight="-0.04591724351908892"/>
				<Con from="input/12" weight="0.05928714303529552"/>
				<Con from="input/13" weight="0.05112663607384286"/>
			</Neuron>
			<Neuron id="1/30" bias="0.09855597103874307">
				<Con from="input/1" weight="0.0976085489745274"/>
				<Con from="input/2" weight="0.12560830535061146"/>
				<Con from="input/3" weight="0.22274281312612995"/>
				<Con from="input/4" weight="-0.1389524970842953"/>
				<Con from="input/5" weight="0.1183627037096485"/>
				<Con from="input/6" weight="-0.15222238118574286"/>
				<Con from="input/7" weight="0.019883362566031636"/>
				<Con from="input/8" weight="0.16524890612582988"/>
				<Con from="input/9" weight="-0.21813440861361535"/>
				<Con from="input/10" weight="0.13093341509170925"/>
				<Con from="input/11" weight="-0.11452655345540527"/>
				<Con from="input/12" weight="0.004950766362146312"/>
				<Con from="input/13" weight="-0.0932548676255042"/>
			</Neuron>
			<Neuron id="1/31" bias="0.11537666778110874">
				<Con from="input/1" weight="-0.1987476062876813"/>
				<Con from="input/2" weight="0.041576872523496844"/>
				<Con from="input/3" weight="-0.12067126902814475"/>
				<Con from="input/4" weight="0.21982375164356266"/>
				<Con from="input/5" weight="-0.14825604386764576"/>
				<Con from="input/6" weight="0.12440203135437912"/>
				<Con from="input/7" weight="0.1397778657169455"/>
				<Con from="input/8" weight="0.020454597678481755"/>
				<Con from="input/9" weight="0.18832648087689224"/>
				<Con from="input/10" weight="-0.15202324266459957"/>
				<Con from="input/11" weight="0.2054068019904686"/>
				<Con from="input/12" weight="0.048850228856055465"/>
				<Con from="input/13" weight="-0.20956574546376808"/>
			</Neuron>
			<Neuron id="1/32" bias="-0.21626889260048351">
				<Con from="input/1" weight="0.2085027902061195"/>
				<Con from="input/2" weight="0.06804629032053963"/>
				<Con from="input/3" weight="-0.04102367617451118"/>
				<Con from="input/4" weight="-0.052778939737454914"/>
				<Con from="input/5" weight="0.03486415826173562"/>
				<Con from="input/6" weight="-0.1374564105074746"/>
				<Con from="input/7" weight="-0.164604025970302"/>
				<Con from="input/8" weight="-0.12038174265656776"/>
				<Con from="input/9" weight="-0.16230687050801115"/>
				<Con from="input/10" weight="0.12439655040288912"/>
				<Con from="input/11" weight="0.02528440885814922"/>
				<Con from="input/12" weight="-0.01788259766812883"/>
				<Con from="input/13" weight="0.07495681364015475"/>
			</Neuron>
			<Neuron id="1/33" bias="-0.07774419841166617">
				<Con from="input/1" weight="0.0748300726453657"/>
				<Con from="input/2" weight="0.1928852268275019"/>
				<Con from="input/3" weight="-0.23414986300113097"/>
				<Con from="input/4" weight="-0.18674924234408083"/>
				<Con from="input/5" weight="0.17347273990363818"/>
				<Con from="input/6" weight="0.07671687198160758"/>
				<Con from="input/7" weight="-0.01220229319018701"/>
				<Con from="input/8" weight="0.1932600053513508"/>
				<Con from="input/9" weight="0.04230830111632698"/>
				<Con from="input/10" weight="0.08570014119320028"/>
				<Con from="input/11" weight="-0.15637293676270742"/>
				<Con from="input/12" weight="0.01464502039875724"/>
				<Con from="input/13" weight="-0.2006971447859171"/>
			</Neuron>
			<Neuron id="1/34" bias="0.1288980196546938">
				<Con from="input/1" weight="0.04845469716403923"/>
				<Con from="input/2" weight="0.20356265383196076"/>
				<Con from="input/3" weight="-0.19601905279533374"/>
				<Con from="input/4" weight="-0.02964778087442839"/>
				<Con from="input/5" weight="-0.06311434675886883"/>
				<Con from="input/6" weight="-0.2244663283046514"/>
				<Con from="input/7" weight="0.1359479052434117"/>
				<Con from="input/8" weight="-0.08786814127699442"/>
				<Con from="input/9" weight="-0.05294892770122297"/>
				<Con from="input/10" weight="-0.07815823449423132"/>
				<Con from="input/11" weight="0.1629357777848747"/>
				<Con from="input/12" weight="-0.24423201993796514"/>
				<Con from="input/13" weight="-0.10160124503372135"/>
			</Neuron>
			<Neuron id="1/35" bias="-0.15208560819507522">
				<Con from="input/1" weight="-0.13457962789816147"/>
				<Con from="input/2" weight="0.10364858815787749"/>
				<Con from="input/3" weight="-0.036752971267963334"/>
				<Con from="input/4" weight="-0.03619133165510639"/>
				<Con from="input/5" weight="0.0484699455452193"/>
				<Con from="input/6" weight="0.04287219224873363"/>
				<Con from="input/7" weight="0.10065923869049467"/>
				<Con from="input/8" weight="-0.12935441535701636"/>
				<Con from="input/9" weight="-0.12881720400606145"/>
				<Con from="input/10" weight="-0.2406295130911181"/>
				<Con from="input/11" weight="0.02652660208680931"/>
				<Con from="input/12" weight="0.14385462414742975"/>
				<Con from="input/13" weight="-0.025816449696487852"/>
			</Neuron>
			<Neuron id="1/36" bias="-0.008942868585417953">
				<Con from="input/1" weight="0.13753180091368852"/>
				<Con from="input/2" weight="0.12290176868612937"/>
				<Con from="input/3" weight="-0.004679728420021618"/>
				<Con from="input/4" weight="0.029555333192553167"/>
				<Con from="input/5" weight="-0.1607668038881121"/>
				<Con from="input/6" weight="0.19686355614447595"/>
				<Con from="input/7" weight="0.06728300082066963"/>
				<Con from="input/8" weight="-0.22198118267473"/>
				<Con from="input/9" weight="-0.08726371166958516"/>
				<Con from="input/10" weight="-0.018497010789458555"/>
				<Con from="input/11" weight="0.12713870265806793"/>
				<Con from="input/12" weight="0.12293026034984122"/>
				<Con from="input/13" weight="-0.001199278518864855"/>
			</Neuron>
			<Neuron id="1/37" bias="-0.10346458516101362">
				<Con from="input/1" weight="0.15507084923055353"/>
				<Con from="input/2" weight="0.0899335966700716"/>
				<Con from="input/3" weight="0.07127605650760625"/>
				<Con from="input/4" weight="-0.11916313416059049"/>
				<Con from="input/5" weight="0.14535429541190062"/>
				<Con from="input/6" weight="-0.15463293280683796"/>
				<Con from="input/7" weight="-0.1853451833139521"/>
				<Con from="input/8" weight="-0.21849417727720105"/>
				<Con from="input/9" weight="0.017742942121474113"/>
				<Con from="input/10" weight="0.05357536466206589"/>
				<Con from="input/11" weight="-0.24518458230732734"/>
				<Con from="input/12" weight="-0.03055229943454506"/>
				<Con from="input/13" weight="0.09955062248756887"/>
			</Neuron>
			<Neuron id="1/38" bias="0.20589959069645808">
				<Con from="input/1" weight="0.15672778712252458"/>
				<Con from="input/2" weight="-0.15041539786394412"/>
				<Con from="input/3" weight="-0.19846855008964487"/>
				<Con from="input/4" weight="-0.07324230779508675"/>
				<Con from="input/5" weight="0.15419155079518343"/>
				<Con from="input/6" weight="0.04769022797404832"/>
				<Con from="input/7" weight="-0.14669007092510997"/>
				<Con from="input/8" weight="-0.15132171229834104"/>
				<Con from="input/9" weight="-0.017651271341901073"/>
				<Con from="input/10" weight="0.04851297705087203"/>
				<Con from="input/11" weight="-0.011086662999969542"/>
				<Con from="input/12" weight="-0.13688231440061563"/>
				<Con from="input/13" weight="0.13877235270022664"/>
			</Neuron>
			<Neuron id="1/39" bias="0.13145526825471898">
				<Con from="input/1" weight="-0.15249880061613338"/>
				<Con from="input/2" weight="-0.166316836945921"/>
				<Con from="input/3" weight="-0.02828909993249581"/>
				<Con from="input/4" weight="-0.14600412930615497"/>
				<Con from="input/5" weight="0.11545816442744614"/>
				<Con from="input/6" weight="-0.14495787683462033"/>
				<Con from="input/7" weight="-0.07120151821086396"/>
				<Con from="input/8" weight="-0.12587938526749967"/>
				<Con from="input/9" weight="-0.17238858550354424"/>
				<Con from="input/10" weight="0.1613501317347599"/>
				<Con from="input/11" weight="-0.00811802071453226"/>
				<Con from="input/12" weight="0.09830538480962994"/>
				<Con from="input/13" weight="-3.392576568638891E-4"/>
			</Neuron>
			<Neuron id="1/40" bias="-0.08575383135773094">
				<Con from="input/1" weight="0.0902124029679981"/>
				<Con from="input/2" weight="0.0024970593726951536"/>
				<Con from="input/3" weight="-0.14965133175766976"/>
				<Con from="input/4" weight="-0.17489403708322984"/>
				<Con from="input/5" weight="-0.07937406672151809"/>
				<Con from="input/6" weight="0.20549636324461076"/>
				<Con from="input/7" weight="0.017460156177743432"/>
				<Con from="input/8" weight="-0.14701875565522862"/>
				<Con from="input/9" weight="0.12188192313437801"/>
				<Con from="input/10" weight="0.06634451737312339"/>
				<Con from="input/11" weight="-0.19592194573368685"/>
				<Con from="input/12" weight="0.2206124184206188"/>
				<Con from="input/13" weight="0.034643433693961334"/>
			</Neuron>
			<Neuron id="1/41" bias="0.11389444642060612">
				<Con from="input/1" weight="0.1878702558130838"/>
				<Con from="input/2" weight="-0.0028976041745149015"/>
				<Con from="input/3" weight="0.2024126964570254"/>
				<Con from="input/4" weight="0.02540981123572608"/>
				<Con from="input/5" weight="0.22901618954578684"/>
				<Con from="input/6" weight="0.15011158933050667"/>
				<Con from="input/7" weight="0.07331759284969688"/>
				<Con from="input/8" weight="-0.1222549983687608"/>
				<Con from="input/9" weight="-0.016422905306483365"/>
				<Con from="input/10" weight="-0.13308425654353584"/>
				<Con from="input/11" weight="0.18626269045298716"/>
				<Con from="input/12" weight="0.1877363363709449"/>
				<Con from="input/13" weight="-0.06250406308519173"/>
			</Neuron>
			<Neuron id="1/42" bias="0.1995246856929882">
				<Con from="input/1" weight="-0.17308210614505734"/>
				<Con from="input/2" weight="0.05437901603963359"/>
				<Con from="input/3" weight="0.03691816689011432"/>
				<Con from="input/4" weight="-0.0835828947999248"/>
				<Con from="input/5" weight="0.1148546538474943"/>
				<Con from="input/6" weight="-0.01553257688898142"/>
				<Con from="input/7" weight="0.21505189242509973"/>
				<Con from="input/8" weight="-0.062309582611799086"/>
				<Con from="input/9" weight="0.030462780062595077"/>
				<Con from="input/10" weight="0.049539790917552624"/>
				<Con from="input/11" weight="0.20311668032578303"/>
				<Con from="input/12" weight="-0.092439952818556"/>
				<Con from="input/13" weight="-0.007813687403643117"/>
			</Neuron>
			<Neuron id="1/43" bias="0.13312742286269816">
				<Con from="input/1" weight="0.11447924103721298"/>
				<Con from="input/2" weight="0.08147163411923879"/>
				<Con from="input/3" weight="0.08277407753286954"/>
				<Con from="input/4" weight="-0.06065354829506589"/>
				<Con from="input/5" weight="0.22323108285830545"/>
				<Con from="input/6" weight="-0.15884709580939443"/>
				<Con from="input/7" weight="-0.08125562742150044"/>
				<Con from="input/8" weight="0.17487770897481467"/>
				<Con from="input/9" weight="0.08161387760009725"/>
				<Con from="input/10" weight="0.22914419887443674"/>
				<Con from="input/11" weight="0.1569796881996288"/>
				<Con from="input/12" weight="0.11444555547418953"/>
				<Con from="input/13" weight="-0.17819571041329507"/>
			</Neuron>
			<Neuron id="1/44" bias="0.1441702747282306">
				<Con from="input/1" weight="-0.1260757958048128"/>
				<Con from="input/2" weight="0.20336470729980552"/>
				<Con from="input/3" weight="0.03982327111199552"/>
				<Con from="input/4" weight="-0.1953632554941021"/>
				<Con from="input/5" weight="0.1001931200729602"/>
				<Con from="input/6" weight="0.1900411007718371"/>
				<Con from="input/7" weight="0.056336774150794196"/>
				<Con from="input/8" weight="-0.013751009965387464"/>
				<Con from="input/9" weight="0.09760311786256075"/>
				<Con from="input/10" weight="-0.11126820262870421"/>
				<Con from="input/11" weight="-0.11752409529793591"/>
				<Con from="input/12" weight="0.19212934579134575"/>
				<Con from="input/13" weight="-0.06473564559640647"/>
			</Neuron>
			<Neuron id="1/45" bias="0.08944948481801301">
				<Con from="input/1" weight="-0.13156856084460514"/>
				<Con from="input/2" weight="0.22091370179081327"/>
				<Con from="input/3" weight="0.06476267145388803"/>
				<Con from="input/4" weight="0.1889628497141507"/>
				<Con from="input/5" weight="0.11655933639960052"/>
				<Con from="input/6" weight="0.2224659779528564"/>
				<Con from="input/7" weight="-0.1565919312730237"/>
				<Con from="input/8" weight="0.0716772588902665"/>
				<Con from="input/9" weight="-0.08030625800283757"/>
				<Con from="input/10" weight="-0.024932200012808978"/>
				<Con from="input/11" weight="-0.07198402298112853"/>
				<Con from="input/12" weight="0.03814315656061617"/>
				<Con from="input/13" weight="0.23895107922119577"/>
			</Neuron>
			<Neuron id="1/46" bias="0.2242723322109621">
				<Con from="input/1" weight="0.00150369942126561"/>
				<Con from="input/2" weight="0.1721269629605594"/>
				<Con from="input/3" weight="-0.0321555148432165"/>
				<Con from="input/4" weight="-0.13249154310930528"/>
				<Con from="input/5" weight="-0.14951074681300539"/>
				<Con from="input/6" weight="0.2438536727761982"/>
				<Con from="input/7" weight="0.14226283373052503"/>
				<Con from="input/8" weight="0.08493539765449376"/>
				<Con from="input/9" weight="-0.07055005394941838"/>
				<Con from="input/10" weight="-0.17594944130367338"/>
				<Con from="input/11" weight="0.1718960036652499"/>
				<Con from="input/12" weight="0.17353898810201335"/>
				<Con from="input/13" weight="0.022946818732061"/>
			</Neuron>
			<Neuron id="1/47" bias="-0.08146786641093254">
				<Con from="input/1" weight="-0.19869885236993087"/>
				<Con from="input/2" weight="0.042482617724373256"/>
				<Con from="input/3" weight="-0.09771343994480138"/>
				<Con from="input/4" weight="-0.19596438754206627"/>
				<Con from="input/5" weight="0.2389889615128183"/>
				<Con from="input/6" weight="0.2301995179858934"/>
				<Con from="input/7" weight="-0.03921358065227832"/>
				<Con from="input/8" weight="0.029861613542796973"/>
				<Con from="input/9" weight="0.22511768331673387"/>
				<Con from="input/10" weight="0.019187227408040332"/>
				<Con from="input/11" weight="0.21711466030804155"/>
				<Con from="input/12" weight="-0.12941828655007956"/>
				<Con from="input/13" weight="-0.12581125029176043"/>
			</Neuron>
			<Neuron id="1/48" bias="-0.05878939885541817">
				<Con from="input/1" weight="0.06904774938954063"/>
				<Con from="input/2" weight="0.12389300185680116"/>
				<Con from="input/3" weight="0.029922562039724963"/>
				<Con from="input/4" weight="-0.06511762953430857"/>
				<Con from="input/5" weight="0.10217015894695888"/>
				<Con from="input/6" weight="0.03514704997575863"/>
				<Con from="input/7" weight="-0.09699230279395424"/>
				<Con from="input/8" weight="0.18367503048719197"/>
				<Con from="input/9" weight="0.10231018877662162"/>
				<Con from="input/10" weight="0.08030579855785637"/>
				<Con from="input/11" weight="-0.18595366792920395"/>
				<Con from="input/12" weight="0.09782440156204796"/>
				<Con from="input/13" weight="-0.20535869143101665"/>
			</Neuron>
			<Neuron id="1/49" bias="-0.1461208272440223">
				<Con from="input/1" weight="-0.037500353284049215"/>
				<Con from="input/2" weight="-0.10315632699703713"/>
				<Con from="input/3" weight="0.1780661653786008"/>
				<Con from="input/4" weight="0.1635763881836146"/>
				<Con from="input/5" weight="-0.06351489815278474"/>
				<Con from="input/6" weight="-0.014559543479388348"/>
				<Con from="input/7" weight="-0.05096289201396746"/>
				<Con from="input/8" weight="-0.05136558960526862"/>
				<Con from="input/9" weight="-0.05461667913664713"/>
				<Con from="input/10" weight="0.00744630598411684"/>
				<Con from="input/11" weight="-0.03737921026550238"/>
				<Con from="input/12" weight="-0.1306900761409579"/>
				<Con from="input/13" weight="0.0023910249175519436"/>
			</Neuron>
			<Neuron id="1/50" bias="0.032231437489972925">
				<Con from="input/1" weight="-0.00832433157623654"/>
				<Con from="input/2" weight="-0.05164421381009672"/>
				<Con from="input/3" weight="-0.03499604951664042"/>
				<Con from="input/4" weight="-0.09091572471919737"/>
				<Con from="input/5" weight="-0.10849878350503422"/>
				<Con from="input/6" weight="-0.08193121641663614"/>
				<Con from="input/7" weight="0.20275098570851124"/>
				<Con from="input/8" weight="0.009688367900481625"/>
				<Con from="input/9" weight="-0.19107596922573003"/>
				<Con from="input/10" weight="-0.0043023085564024765"/>
				<Con from="input/11" weight="0.01323749164829125"/>
				<Con from="input/12" weight="-0.17340557610032237"/>
				<Con from="input/13" weight="-0.16892627260221546"/>
			</Neuron>
			<Neuron id="1/51" bias="0.11822412119021668">
				<Con from="input/1" weight="0.06395332975317915"/>
				<Con from="input/2" weight="0.1713534390662245"/>
				<Con from="input/3" weight="-0.11127329205969658"/>
				<Con from="input/4" weight="0.0363408883198874"/>
				<Con from="input/5" weight="-0.03173553381725124"/>
				<Con from="input/6" weight="-0.13205116341262882"/>
				<Con from="input/7" weight="-0.01357990739325216"/>
				<Con from="input/8" weight="-0.1730441872532941"/>
				<Con from="input/9" weight="0.1808467422733906"/>
				<Con from="input/10" weight="0.09133799284511222"/>
				<Con from="input/11" weight="0.07337996907897357"/>
				<Con from="input/12" weight="-0.11943660896684165"/>
				<Con from="input/13" weight="0.12324013689438462"/>
			</Neuron>
			<Neuron id="1/52" bias="-0.17176584733778108">
				<Con from="input/1" weight="-0.21668497943475284"/>
				<Con from="input/2" weight="0.2003025321146864"/>
				<Con from="input/3" weight="0.11256705634945349"/>
				<Con from="input/4" weight="-0.18103859384979792"/>
				<Con from="input/5" weight="-0.0353199629770079"/>
				<Con from="input/6" weight="0.1340961622398836"/>
				<Con from="input/7" weight="0.1524430149642749"/>
				<Con from="input/8" weight="0.14963526805691219"/>
				<Con from="input/9" weight="0.112890771030373"/>
				<Con from="input/10" weight="0.09122180486866775"/>
				<Con from="input/11" weight="-0.03811121552012334"/>
				<Con from="input/12" weight="0.2129095109366228"/>
				<Con from="input/13" weight="-0.03702475265834564"/>
			</Neuron>
			<Neuron id="1/53" bias="0.20237947421362845">
				<Con from="input/1" weight="-0.19813791586255453"/>
				<Con from="input/2" weight="-0.05445808926293612"/>
				<Con from="input/3" weight="0.11800539733688566"/>
				<Con from="input/4" weight="0.06125915216661634"/>
				<Con from="input/5" weight="0.179330767324255"/>
				<Con from="input/6" weight="-0.16954243959792503"/>
				<Con from="input/7" weight="-0.08979965695871757"/>
				<Con from="input/8" weight="0.1712895198292437"/>
				<Con from="input/9" weight="-0.12872311513752058"/>
				<Con from="input/10" weight="0.19685190309776956"/>
				<Con from="input/11" weight="0.09617308022489125"/>
				<Con from="input/12" weight="0.14599658598020207"/>
				<Con from="input/13" weight="0.025301976215818863"/>
			</Neuron>
			<Neuron id="1/54" bias="0.22797528258271865">
				<Con from="input/1" weight="-0.11547241163344484"/>
				<Con from="input/2" weight="-0.06463203215619787"/>
				<Con from="input/3" weight="0.02855491167347554"/>
				<Con from="input/4" weight="-0.03081458708591752"/>
				<Con from="input/5" weight="-0.04720083210985721"/>
				<Con from="input/6" weight="-0.201123126140241"/>
				<Con from="input/7" weight="-0.037402554260430626"/>
				<Con from="input/8" weight="0.015339075361420007"/>
				<Con from="input/9" weight="-0.1986530961355682"/>
				<Con from="input/10" weight="0.018239943797131442"/>
				<Con from="input/11" weight="0.08681476893985314"/>
				<Con from="input/12" weight="-0.05454067653794519"/>
				<Con from="input/13" weight="-0.0023553230052493113"/>
			</Neuron>
			<Neuron id="1/55" bias="-0.02462538421613024">
				<Con from="input/1" weight="0.12589008070991162"/>
				<Con from="input/2" weight="0.1869614261302093"/>
				<Con from="input/3" weight="-0.06109459879019327"/>
				<Con from="input/4" weight="-0.030433655373829416"/>
				<Con from="input/5" weight="-0.15528563857450997"/>
				<Con from="input/6" weight="-0.1539945375433676"/>
				<Con from="input/7" weight="0.1280039342747656"/>
				<Con from="input/8" weight="0.0545166131547454"/>
				<Con from="input/9" weight="0.009755671037640476"/>
				<Con from="input/10" weight="-0.0690768616650403"/>
				<Con from="input/11" weight="0.02570013732156746"/>
				<Con from="input/12" weight="0.1278837077619572"/>
				<Con from="input/13" weight="0.15802510946078255"/>
			</Neuron>
			<Neuron id="1/56" bias="0.1280327105625235">
				<Con from="input/1" weight="-0.06652941136457764"/>
				<Con from="input/2" weight="0.06106269595947081"/>
				<Con from="input/3" weight="-1.94162831255565E-4"/>
				<Con from="input/4" weight="-0.03167061495153339"/>
				<Con from="input/5" weight="0.22547021015228658"/>
				<Con from="input/6" weight="-0.13424226471239945"/>
				<Con from="input/7" weight="0.21867364196225425"/>
				<Con from="input/8" weight="0.127461873635591"/>
				<Con from="input/9" weight="-0.20902287180802204"/>
				<Con from="input/10" weight="0.09599335998470782"/>
				<Con from="input/11" weight="-0.010788815503080479"/>
				<Con from="input/12" weight="0.1998073631886236"/>
				<Con from="input/13" weight="0.24126031467188414"/>
			</Neuron>
			<Neuron id="1/57" bias="0.18730481798926185">
				<Con from="input/1" weight="0.06842819657249928"/>
				<Con from="input/2" weight="-0.20621256281430556"/>
				<Con from="input/3" weight="-0.18469080131248752"/>
				<Con from="input/4" weight="-0.0228685977430034"/>
				<Con from="input/5" weight="0.08877854459823131"/>
				<Con from="input/6" weight="-0.027086586565998896"/>
				<Con from="input/7" weight="0.14451906289163133"/>
				<Con from="input/8" weight="0.060918341374496116"/>
				<Con from="input/9" weight="0.1319005318254007"/>
				<Con from="input/10" weight="0.09790171099253825"/>
				<Con from="input/11" weight="-0.1853256659222476"/>
				<Con from="input/12" weight="0.07433251723913425"/>
				<Con from="input/13" weight="-0.0038348368625246436"/>
			</Neuron>
			<Neuron id="1/58" bias="0.19970566109158855">
				<Con from="input/1" weight="0.167764147853705"/>
				<Con from="input/2" weight="0.1592254463555317"/>
				<Con from="input/3" weight="-0.23074591750832152"/>
				<Con from="input/4" weight="0.009653866045647717"/>
				<Con from="input/5" weight="-0.05322099907040841"/>
				<Con from="input/6" weight="-0.11914389173415929"/>
				<Con from="input/7" weight="-0.23935886244442167"/>
				<Con from="input/8" weight="0.14027788165876262"/>
				<Con from="input/9" weight="0.12839144423579507"/>
				<Con from="input/10" weight="0.16032479888323778"/>
				<Con from="input/11" weight="-0.029500198342131148"/>
				<Con from="input/12" weight="0.15344380975981858"/>
				<Con from="input/13" weight="-0.17708137200279184"/>
			</Neuron>
			<Neuron id="1/59" bias="-0.05215477915057057">
				<Con from="input/1" weight="-0.19574412436343203"/>
				<Con from="input/2" weight="-0.03214987568801859"/>
				<Con from="input/3" weight="-0.02712994377181543"/>
				<Con from="input/4" weight="0.0925304661363358"/>
				<Con from="input/5" weight="-0.004786678339027012"/>
				<Con from="input/6" weight="-0.031838061279370895"/>
				<Con from="input/7" weight="0.03510031350861725"/>
				<Con from="input/8" weight="-0.025955288220458644"/>
				<Con from="input/9" weight="0.06646767273035391"/>
				<Con from="input/10" weight="-0.11794954363063155"/>
				<Con from="input/11" weight="-0.13240642026027305"/>
				<Con from="input/12" weight="0.07740383840859265"/>
				<Con from="input/13" weight="0.10960731441282441"/>
			</Neuron>
			<Neuron id="1/60" bias="0.13084587376672352">
				<Con from="input/1" weight="-0.19144312617764184"/>
				<Con from="input/2" weight="-0.011327384656063564"/>
				<Con from="input/3" weight="-0.0432638571143951"/>
				<Con from="input/4" weight="0.06659842337257454"/>
				<Con from="input/5" weight="-0.07976034356660432"/>
				<Con from="input/6" weight="0.020516364002002452"/>
				<Con from="input/7" weight="0.023060045914947192"/>
				<Con from="input/8" weight="-0.024286024480668238"/>
				<Con from="input/9" weight="0.05603758748366533"/>
				<Con from="input/10" weight="0.09196869475471994"/>
				<Con from="input/11" weight="-0.05005618624591335"/>
				<Con from="input/12" weight="-0.09995622063972635"/>
				<Con from="input/13" weight="-0.049758195202066154"/>
			</Neuron>
			<Neuron id="1/61" bias="-0.19597526510641938">
				<Con from="input/1" weight="-0.17734393715520488"/>
				<Con from="input/2" weight="-0.04209268446496615"/>
				<Con from="input/3" weight="0.12205963971256308"/>
				<Con from="input/4" weight="-0.15706580832907666"/>
				<Con from="input/5" weight="-0.05963933908568043"/>
				<Con from="input/6" weight="0.183782546157103"/>
				<Con from="input/7" weight="-0.026834720323046953"/>
				<Con from="input/8" weight="-0.1336950999141513"/>
				<Con from="input/9" weight="0.053310493082822395"/>
				<Con from="input/10" weight="-0.15984774542748664"/>
				<Con from="input/11" weight="0.13421157619593785"/>
				<Con from="input/12" weight="0.10232582359975335"/>
				<Con from="input/13" weight="-0.08335906697985977"/>
			</Neuron>
			<Neuron id="1/62" bias="0.1755053796950321">
				<Con from="input/1" weight="0.18923117867311787"/>
				<Con from="input/2" weight="0.18529993654437732"/>
				<Con from="input/3" weight="-0.045088326789326054"/>
				<Con from="input/4" weight="-0.18263756468478617"/>
				<Con from="input/5" weight="-0.06619445561714891"/>
				<Con from="input/6" weight="-0.1190579649394023"/>
				<Con from="input/7" weight="-0.11872519121432694"/>
				<Con from="input/8" weight="0.1701539424849974"/>
				<Con from="input/9" weight="0.1330645308933567"/>
				<Con from="input/10" weight="-0.06758038065436837"/>
				<Con from="input/11" weight="-0.053117721168666227"/>
				<Con from="input/12" weight="0.17654288553880537"/>
				<Con from="input/13" weight="0.022425023365650165"/>
			</Neuron>
			<Neuron id="1/63" bias="-0.19855378070186808">
				<Con from="input/1" weight="0.036743996696888284"/>
				<Con from="input/2" weight="-0.15493169351196806"/>
				<Con from="input/3" weight="0.10041549370217401"/>
				<Con from="input/4" weight="-0.05533151890060211"/>
				<Con from="input/5" weight="-0.004999960640509644"/>
				<Con from="input/6" weight="-0.13013715270650314"/>
				<Con from="input/7" weight="0.024330958027417037"/>
				<Con from="input/8" weight="-0.11200480324765424"/>
				<Con from="input/9" weight="0.11007641647643901"/>
				<Con from="input/10" weight="0.08618933874116201"/>
				<Con from="input/11" weight="-0.05478140910317326"/>
				<Con from="input/12" weight="0.07660941054869938"/>
				<Con from="input/13" weight="0.03956800057467791"/>
			</Neuron>
			<Neuron id="1/64" bias="0.07387625659344499">
				<Con from="input/1" weight="0.14256184438493663"/>
				<Con from="input/2" weight="-0.11581049676041702"/>
				<Con from="input/3" weight="0.04000665898512579"/>
				<Con from="input/4" weight="0.02108761947314845"/>
				<Con from="input/5" weight="0.09474862633829281"/>
				<Con from="input/6" weight="0.07675547181904754"/>
				<Con from="input/7" weight="0.01020038525651062"/>
				<Con from="input/8" weight="-0.12653272222970877"/>
				<Con from="input/9" weight="-0.18087504241889193"/>
				<Con from="input/10" weight="-0.17209086429719617"/>
				<Con from="input/11" weight="-0.19966632936448436"/>
				<Con from="input/12" weight="-0.14452770081916994"/>
				<Con from="input/13" weight="-0.10150016622109857"/>
			</Neuron>
			<Neuron id="1/65" bias="-0.05224020317974978">
				<Con from="input/1" weight="-0.024357365607679794"/>
				<Con from="input/2" weight="-0.16981689573106354"/>
				<Con from="input/3" weight="-0.03833968284725767"/>
				<Con from="input/4" weight="0.20250979986795148"/>
				<Con from="input/5" weight="-0.13895701559377144"/>
				<Con from="input/6" weight="-0.02853078475895027"/>
				<Con from="input/7" weight="-0.03270868771468666"/>
				<Con from="input/8" weight="-0.17769133034810808"/>
				<Con from="input/9" weight="0.010985155893995213"/>
				<Con from="input/10" weight="-0.07062674449293438"/>
				<Con from="input/11" weight="0.03495412771200384"/>
				<Con from="input/12" weight="0.14768484139778915"/>
				<Con from="input/13" weight="0.19211687141907494"/>
			</Neuron>
			<Neuron id="1/66" bias="0.07985285803826875">
				<Con from="input/1" weight="0.1903534949862451"/>
				<Con from="input/2" weight="-0.025127652099136134"/>
				<Con from="input/3" weight="0.20225472373288014"/>
				<Con from="input/4" weight="0.09740641237331457"/>
				<Con from="input/5" weight="0.06263264214733662"/>
				<Con from="input/6" weight="0.17012987390389697"/>
				<Con from="input/7" weight="0.0939591431226219"/>
				<Con from="input/8" weight="-0.06919548981943789"/>
				<Con from="input/9" weight="-0.14936438896884457"/>
				<Con from="input/10" weight="0.12274512822375926"/>
				<Con from="input/11" weight="-0.0964773820122668"/>
				<Con from="input/12" weight="0.0670813843213186"/>
				<Con from="input/13" weight="-0.14025101156118736"/>
			</Neuron>
			<Neuron id="1/67" bias="0.06661067949601135">
				<Con from="input/1" weight="-0.01950945803019751"/>
				<Con from="input/2" weight="0.21380005230917098"/>
				<Con from="input/3" weight="0.07958756633739267"/>
				<Con from="input/4" weight="-0.04298175836469064"/>
				<Con from="input/5" weight="-0.22427103884007935"/>
				<Con from="input/6" weight="-0.164883243118397"/>
				<Con from="input/7" weight="0.0842033337326979"/>
				<Con from="input/8" weight="0.13834966482267205"/>
				<Con from="input/9" weight="-0.20572383168658714"/>
				<Con from="input/10" weight="-0.03112530992460827"/>
				<Con from="input/11" weight="-0.2239769129258315"/>
				<Con from="input/12" weight="0.18422106453154696"/>
				<Con from="input/13" weight="0.041109126346614996"/>
			</Neuron>
			<Neuron id="1/68" bias="-0.12092589553994292">
				<Con from="input/1" weight="-0.03795027060355455"/>
				<Con from="input/2" weight="-0.17511972033514064"/>
				<Con from="input/3" weight="-0.20342079955913464"/>
				<Con from="input/4" weight="0.06270222639554124"/>
				<Con from="input/5" weight="0.1783594942041859"/>
				<Con from="input/6" weight="-0.14629704213753972"/>
				<Con from="input/7" weight="0.048623280629199156"/>
				<Con from="input/8" weight="0.0506776172917391"/>
				<Con from="input/9" weight="-0.14318967649400705"/>
				<Con from="input/10" weight="0.20081675465347726"/>
				<Con from="input/11" weight="-0.07375080003914103"/>
				<Con from="input/12" weight="0.07679113407962197"/>
				<Con from="input/13" weight="-0.08082259230304084"/>
			</Neuron>
			<Neuron id="1/69" bias="-0.23714326398966812">
				<Con from="input/1" weight="-0.16803525259291702"/>
				<Con from="input/2" weight="0.018360475109804174"/>
				<Con from="input/3" weight="-0.0968851528236734"/>
				<Con from="input/4" weight="0.04458784073317306"/>
				<Con from="input/5" weight="0.07463459908371138"/>
				<Con from="input/6" weight="-0.061007951331110526"/>
				<Con from="input/7" weight="-0.014936989680577863"/>
				<Con from="input/8" weight="0.03757021459028076"/>
				<Con from="input/9" weight="-0.05366587372205019"/>
				<Con from="input/10" weight="-0.008146868307024694"/>
				<Con from="input/11" weight="0.20448389647794868"/>
				<Con from="input/12" weight="0.12316769131204601"/>
				<Con from="input/13" weight="0.15005847494936328"/>
			</Neuron>
			<Neuron id="1/70" bias="-0.23929875366134498">
				<Con from="input/1" weight="-0.2344216244623612"/>
				<Con from="input/2" weight="0.17060388415044422"/>
				<Con from="input/3" weight="-0.03483141575158519"/>
				<Con from="input/4" weight="0.13145478583168635"/>
				<Con from="input/5" weight="-0.22959692677700008"/>
				<Con from="input/6" weight="-0.19188685807674086"/>
				<Con from="input/7" weight="0.03418691280867197"/>
				<Con from="input/8" weight="-0.10163823902421672"/>
				<Con from="input/9" weight="-0.1582655267705322"/>
				<Con from="input/10" weight="0.1961610011897684"/>
				<Con from="input/11" weight="0.05174602408548808"/>
				<Con from="input/12" weight="-0.12530728660728832"/>
				<Con from="input/13" weight="-1.2128789916339495E-4"/>
			</Neuron>
			<Neuron id="1/71" bias="-0.03563807533943585">
				<Con from="input/1" weight="-0.107774722436874"/>
				<Con from="input/2" weight="0.20456347994393562"/>
				<Con from="input/3" weight="0.19530269720619928"/>
				<Con from="input/4" weight="0.18545228584789028"/>
				<Con from="input/5" weight="0.1667063306795762"/>
				<Con from="input/6" weight="0.13917583024845429"/>
				<Con from="input/7" weight="0.07046564522100934"/>
				<Con from="input/8" weight="0.0437486626536061"/>
				<Con from="input/9" weight="-0.13470848570335553"/>
				<Con from="input/10" weight="0.09674561340596712"/>
				<Con from="input/11" weight="0.06305012902233001"/>
				<Con from="input/12" weight="0.13072436194513376"/>
				<Con from="input/13" weight="-0.1426572512921293"/>
			</Neuron>
			<Neuron id="1/72" bias="-0.05184742584761909">
				<Con from="input/1" weight="0.0023135572457018377"/>
				<Con from="input/2" weight="-0.14036627964378082"/>
				<Con from="input/3" weight="0.058970213117816146"/>
				<Con from="input/4" weight="-0.023778432886698796"/>
				<Con from="input/5" weight="0.06154317349619361"/>
				<Con from="input/6" weight="-0.14251310560371958"/>
				<Con from="input/7" weight="-0.15746633512349026"/>
				<Con from="input/8" weight="0.029806151704697526"/>
				<Con from="input/9" weight="0.1590410585768868"/>
				<Con from="input/10" weight="-0.06291904272078137"/>
				<Con from="input/11" weight="0.012875098683598755"/>
				<Con from="input/12" weight="-0.1525045660777247"/>
				<Con from="input/13" weight="-0.03733512987904486"/>
			</Neuron>
			<Neuron id="1/73" bias="-0.18469440425224543">
				<Con from="input/1" weight="-0.08955544766015763"/>
				<Con from="input/2" weight="-0.1513822380665332"/>
				<Con from="input/3" weight="-0.14591420195226099"/>
				<Con from="input/4" weight="-0.02981316509738853"/>
				<Con from="input/5" weight="-0.1226812077323659"/>
				<Con from="input/6" weight="-0.20120376145256824"/>
				<Con from="input/7" weight="-0.05754959815336039"/>
				<Con from="input/8" weight="-0.01603274006825367"/>
				<Con from="input/9" weight="0.013176360897863254"/>
				<Con from="input/10" weight="0.026873210981837207"/>
				<Con from="input/11" weight="-0.009264630784251103"/>
				<Con from="input/12" weight="-0.08074944265925213"/>
				<Con from="input/13" weight="0.11457327943336816"/>
			</Neuron>
			<Neuron id="1/74" bias="-0.2245311522377864">
				<Con from="input/1" weight="0.012355352125569076"/>
				<Con from="input/2" weight="0.19467314849277753"/>
				<Con from="input/3" weight="0.15668071313448304"/>
				<Con from="input/4" weight="-0.2228676053324173"/>
				<Con from="input/5" weight="0.08014097823101413"/>
				<Con from="input/6" weight="-0.0058070417215820526"/>
				<Con from="input/7" weight="0.1841154573489424"/>
				<Con from="input/8" weight="0.06994669759639455"/>
				<Con from="input/9" weight="-0.2054169561793421"/>
				<Con from="input/10" weight="-0.014200842660555294"/>
				<Con from="input/11" weight="0.20758004240816721"/>
				<Con from="input/12" weight="0.17809175699386956"/>
				<Con from="input/13" weight="-0.034449536598214446"/>
			</Neuron>
			<Neuron id="1/75" bias="-0.0033821301310476715">
				<Con from="input/1" weight="-0.07905532973758435"/>
				<Con from="input/2" weight="0.10765867295219243"/>
				<Con from="input/3" weight="0.0956876569934941"/>
				<Con from="input/4" weight="-0.21720824980824446"/>
				<Con from="input/5" weight="0.18990186956280833"/>
				<Con from="input/6" weight="-0.11704641845475731"/>
				<Con from="input/7" weight="-0.21150117942571237"/>
				<Con from="input/8" weight="0.031203023384183813"/>
				<Con from="input/9" weight="-0.23037291610058855"/>
				<Con from="input/10" weight="-0.07637644174773046"/>
				<Con from="input/11" weight="-0.01253615426297896"/>
				<Con from="input/12" weight="-0.18969462224871717"/>
				<Con from="input/13" weight="0.01596412668118227"/>
			</Neuron>
			<Neuron id="1/76" bias="-0.21455727222439225">
				<Con from="input/1" weight="0.16152138234828017"/>
				<Con from="input/2" weight="0.10711347297376694"/>
				<Con from="input/3" weight="-0.14014034757091737"/>
				<Con from="input/4" weight="-0.19247603037136518"/>
				<Con from="input/5" weight="-0.1579835478910112"/>
				<Con from="input/6" weight="0.15491909340235138"/>
				<Con from="input/7" weight="0.1031817126203296"/>
				<Con from="input/8" weight="0.13448924201536244"/>
				<Con from="input/9" weight="0.09882768561994588"/>
				<Con from="input/10" weight="0.2097906266182603"/>
				<Con from="input/11" weight="0.010701345391521327"/>
				<Con from="input/12" weight="0.12250307524351968"/>
				<Con from="input/13" weight="0.143248848032154"/>
			</Neuron>
			<Neuron id="1/77" bias="-0.030635986101689165">
				<Con from="input/1" weight="0.14830071844723483"/>
				<Con from="input/2" weight="0.10815747766495905"/>
				<Con from="input/3" weight="-0.12339900392380733"/>
				<Con from="input/4" weight="-0.0166051756415402"/>
				<Con from="input/5" weight="0.16738884356192799"/>
				<Con from="input/6" weight="0.1520191548842583"/>
				<Con from="input/7" weight="-0.19909828120573367"/>
				<Con from="input/8" weight="-0.005625889606934172"/>
				<Con from="input/9" weight="-0.2012022987151558"/>
				<Con from="input/10" weight="0.0376987042262278"/>
				<Con from="input/11" weight="0.07976313168201782"/>
				<Con from="input/12" weight="-0.08774319834354052"/>
				<Con from="input/13" weight="0.18141630146466245"/>
			</Neuron>
			<Neuron id="1/78" bias="-0.05541387134399759">
				<Con from="input/1" weight="-0.169453196667393"/>
				<Con from="input/2" weight="0.06855036830017633"/>
				<Con from="input/3" weight="-0.1422092279458271"/>
				<Con from="input/4" weight="0.13774493454499"/>
				<Con from="input/5" weight="0.20098622695709836"/>
				<Con from="input/6" weight="-0.21792078305617088"/>
				<Con from="input/7" weight="0.14108742684878248"/>
				<Con from="input/8" weight="-0.1605900009065833"/>
				<Con from="input/9" weight="0.10547256550310183"/>
				<Con from="input/10" weight="-0.08451191255165998"/>
				<Con from="input/11" weight="-0.034603816524790346"/>
				<Con from="input/12" weight="0.06999749107573382"/>
				<Con from="input/13" weight="-0.23048634369429344"/>
			</Neuron>
			<Neuron id="1/79" bias="0.20769938528423393">
				<Con from="input/1" weight="-0.04223637901348549"/>
				<Con from="input/2" weight="-0.08953814585336774"/>
				<Con from="input/3" weight="-0.15370769603658702"/>
				<Con from="input/4" weight="-0.02678381800356408"/>
				<Con from="input/5" weight="0.13581540786063717"/>
				<Con from="input/6" weight="-0.19325442834534945"/>
				<Con from="input/7" weight="0.1348897027128094"/>
				<Con from="input/8" weight="-0.004064956767491925"/>
				<Con from="input/9" weight="0.040889596819390646"/>
				<Con from="input/10" weight="0.12003990566250122"/>
				<Con from="input/11" weight="-0.1754605993801262"/>
				<Con from="input/12" weight="-0.15776351511534514"/>
				<Con from="input/13" weight="-0.044581404693423726"/>
			</Neuron>
			<Neuron id="1/80" bias="-0.025735355977841132">
				<Con from="input/1" weight="-0.15642849051624125"/>
				<Con from="input/2" weight="0.14306392923806707"/>
				<Con from="input/3" weight="-0.010976194135709638"/>
				<Con from="input/4" weight="0.18908701773456782"/>
				<Con from="input/5" weight="0.15199655545885166"/>
				<Con from="input/6" weight="-0.18570849479189247"/>
				<Con from="input/7" weight="0.003608366531885663"/>
				<Con from="input/8" weight="-0.07731832130516694"/>
				<Con from="input/9" weight="0.10778023865690949"/>
				<Con from="input/10" weight="-0.1958478229086948"/>
				<Con from="input/11" weight="-0.2113648283297035"/>
				<Con from="input/12" weight="-0.09407682350115854"/>
				<Con from="input/13" weight="-0.025904674883119636"/>
			</Neuron>
			<Neuron id="1/81" bias="-0.19428711336445448">
				<Con from="input/1" weight="0.09730652705230917"/>
				<Con from="input/2" weight="0.0145812382899006"/>
				<Con from="input/3" weight="0.13701743541043765"/>
				<Con from="input/4" weight="0.12497203420012203"/>
				<Con from="input/5" weight="-0.01553519143871975"/>
				<Con from="input/6" weight="0.16346287396726175"/>
				<Con from="input/7" weight="0.18501237167172804"/>
				<Con from="input/8" weight="-0.18923560196115058"/>
				<Con from="input/9" weight="-3.2911017833116166E-4"/>
				<Con from="input/10" weight="-0.06945907025701245"/>
				<Con from="input/11" weight="-0.07425714192582755"/>
				<Con from="input/12" weight="0.02903476480824296"/>
				<Con from="input/13" weight="0.08999900396499581"/>
			</Neuron>
			<Neuron id="1/82" bias="-0.058307508132051246">
				<Con from="input/1" weight="0.03108902197772757"/>
				<Con from="input/2" weight="0.1579104237288818"/>
				<Con from="input/3" weight="-0.05415256429226005"/>
				<Con from="input/4" weight="0.16436988182681306"/>
				<Con from="input/5" weight="0.0011150491172878386"/>
				<Con from="input/6" weight="-0.08151669074184387"/>
				<Con from="input/7" weight="0.07578033563908053"/>
				<Con from="input/8" weight="0.1866831193334213"/>
				<Con from="input/9" weight="0.15910033351529523"/>
				<Con from="input/10" weight="0.15226447308111224"/>
				<Con from="input/11" weight="0.107680409135541"/>
				<Con from="input/12" weight="0.008241858531295046"/>
				<Con from="input/13" weight="0.043987908089799396"/>
			</Neuron>
			<Neuron id="1/83" bias="0.16382589773159947">
				<Con from="input/1" weight="-0.208073211031095"/>
				<Con from="input/2" weight="0.07173394529642863"/>
				<Con from="input/3" weight="-0.07687514494150834"/>
				<Con from="input/4" weight="-0.05358718423956199"/>
				<Con from="input/5" weight="-0.12180401645468554"/>
				<Con from="input/6" weight="0.09646504702455443"/>
				<Con from="input/7" weight="0.2059833712645379"/>
				<Con from="input/8" weight="-0.07527318713618701"/>
				<Con from="input/9" weight="0.1367467504202824"/>
				<Con from="input/10" weight="0.1798571126434429"/>
				<Con from="input/11" weight="0.15460896339750135"/>
				<Con from="input/12" weight="-0.06483808991622023"/>
				<Con from="input/13" weight="-0.1149399875098786"/>
			</Neuron>
			<Neuron id="1/84" bias="-0.1702250962199485">
				<Con from="input/1" weight="-0.10272146265947238"/>
				<Con from="input/2" weight="-0.07408759447378832"/>
				<Con from="input/3" weight="-0.13607304879813303"/>
				<Con from="input/4" weight="-0.17908991922892747"/>
				<Con from="input/5" weight="5.269691829052018E-4"/>
				<Con from="input/6" weight="-0.2039988238400807"/>
				<Con from="input/7" weight="-0.10496440151398502"/>
				<Con from="input/8" weight="-0.0872336165948716"/>
				<Con from="input/9" weight="0.0011216178593223775"/>
				<Con from="input/10" weight="-0.13291520595239734"/>
				<Con from="input/11" weight="0.17945283714283078"/>
				<Con from="input/12" weight="-0.08986517386255362"/>
				<Con from="input/13" weight="0.11192859588387837"/>
			</Neuron>
			<Neuron id="1/85" bias="-0.14540670862354088">
				<Con from="input/1" weight="0.02242152837465682"/>
				<Con from="input/2" weight="0.18171359767520573"/>
				<Con from="input/3" weight="0.21650359144141823"/>
				<Con from="input/4" weight="0.12672945992860254"/>
				<Con from="input/5" weight="0.128388644717232"/>
				<Con from="input/6" weight="0.213439583390785"/>
				<Con from="input/7" weight="-0.006788753489959273"/>
				<Con from="input/8" weight="-0.16579656662111467"/>
				<Con from="input/9" weight="-0.17534898040158167"/>
				<Con from="input/10" weight="0.14176799694426948"/>
				<Con from="input/11" weight="-0.19401247926000476"/>
				<Con from="input/12" weight="-0.005595735040998023"/>
				<Con from="input/13" weight="0.15939409930506793"/>
			</Neuron>
			<Neuron id="1/86" bias="-0.21529453922202343">
				<Con from="input/1" weight="0.16276263844574887"/>
				<Con from="input/2" weight="-0.18262649890782692"/>
				<Con from="input/3" weight="-0.0025188053325148484"/>
				<Con from="input/4" weight="0.10745488937746077"/>
				<Con from="input/5" weight="-0.07687924963876962"/>
				<Con from="input/6" weight="-0.12114950315168102"/>
				<Con from="input/7" weight="0.1546444386768253"/>
				<Con from="input/8" weight="0.11262110858080428"/>
				<Con from="input/9" weight="0.02560963822344551"/>
				<Con from="input/10" weight="0.1837530970759942"/>
				<Con from="input/11" weight="-0.10383302574504918"/>
				<Con from="input/12" weight="0.19042432248391133"/>
				<Con from="input/13" weight="-0.05486180057109743"/>
			</Neuron>
			<Neuron id="1/87" bias="0.1002057240337504">
				<Con from="input/1" weight="0.03423446826341949"/>
				<Con from="input/2" weight="0.08956079213963086"/>
				<Con from="input/3" weight="0.19268056811696202"/>
				<Con from="input/4" weight="-0.13261227288914684"/>
				<Con from="input/5" weight="-0.06071941444226864"/>
				<Con from="input/6" weight="-0.22247903837246186"/>
				<Con from="input/7" weight="-0.21321233939468606"/>
				<Con from="input/8" weight="0.06419938653136674"/>
				<Con from="input/9" weight="0.19850805113352532"/>
				<Con from="input/10" weight="0.07146227675104459"/>
				<Con from="input/11" weight="-0.11810012384850618"/>
				<Con from="input/12" weight="0.09887486516843269"/>
				<Con from="input/13" weight="0.1842911095836302"/>
			</Neuron>
			<Neuron id="1/88" bias="-0.03131560148707023">
				<Con from="input/1" weight="0.17424538558822059"/>
				<Con from="input/2" weight="0.16751022956622696"/>
				<Con from="input/3" weight="0.18289220297561784"/>
				<Con from="input/4" weight="0.018730046640460987"/>
				<Con from="input/5" weight="-0.18544753935117492"/>
				<Con from="input/6" weight="0.18698428213219015"/>
				<Con from="input/7" weight="0.14701289663059466"/>
				<Con from="input/8" weight="-0.1590115491890843"/>
				<Con from="input/9" weight="0.0023344149073231636"/>
				<Con from="input/10" weight="-0.06748118508902816"/>
				<Con from="input/11" weight="-0.16002764464588243"/>
				<Con from="input/12" weight="0.06167205491238966"/>
				<Con from="input/13" weight="0.17933469553317177"/>
			</Neuron>
			<Neuron id="1/89" bias="0.010144837401694778">
				<Con from="input/1" weight="0.03301890998785671"/>
				<Con from="input/2" weight="-0.045784058208065866"/>
				<Con from="input/3" weight="0.0990075236717688"/>
				<Con from="input/4" weight="0.07733069074132443"/>
				<Con from="input/5" weight="-0.002045865356913293"/>
				<Con from="input/6" weight="0.14116128959357652"/>
				<Con from="input/7" weight="0.011201993852851456"/>
				<Con from="input/8" weight="-0.01932136639524471"/>
				<Con from="input/9" weight="-0.1330848167261253"/>
				<Con from="input/10" weight="0.13542288104074507"/>
				<Con from="input/11" weight="-0.023648759659404692"/>
				<Con from="input/12" weight="0.1547574716324459"/>
				<Con from="input/13" weight="-0.14991888120768262"/>
			</Neuron>
			<Neuron id="1/90" bias="0.21360138615207258">
				<Con from="input/1" weight="0.1970619967184243"/>
				<Con from="input/2" weight="0.12142159762246983"/>
				<Con from="input/3" weight="0.061933339621130776"/>
				<Con from="input/4" weight="-0.0528233800805277"/>
				<Con from="input/5" weight="-0.026654260967849754"/>
				<Con from="input/6" weight="-0.044911970511262764"/>
				<Con from="input/7" weight="0.16890469864743105"/>
				<Con from="input/8" weight="0.13822575523514322"/>
				<Con from="input/9" weight="0.12922563498527018"/>
				<Con from="input/10" weight="-0.05893729532974014"/>
				<Con from="input/11" weight="0.08913953861801147"/>
				<Con from="input/12" weight="0.19961372398512073"/>
				<Con from="input/13" weight="-0.22068210654958334"/>
			</Neuron>
			<Neuron id="1/91" bias="0.1582754200923837">
				<Con from="input/1" weight="-0.1136342198672671"/>
				<Con from="input/2" weight="0.019352204302556686"/>
				<Con from="input/3" weight="0.08371726593544998"/>
				<Con from="input/4" weight="0.10603942394580135"/>
				<Con from="input/5" weight="-0.1587408653623443"/>
				<Con from="input/6" weight="0.10320202757860975"/>
				<Con from="input/7" weight="0.020279391880000837"/>
				<Con from="input/8" weight="-0.1275750581962476"/>
				<Con from="input/9" weight="-0.058865766925934045"/>
				<Con from="input/10" weight="0.2219285457180844"/>
				<Con from="input/11" weight="0.03628512486152195"/>
				<Con from="input/12" weight="-0.08417845603182726"/>
				<Con from="input/13" weight="0.10812145433618349"/>
			</Neuron>
			<Neuron id="1/92" bias="-0.234731535816538">
				<Con from="input/1" weight="-0.10910777325940911"/>
				<Con from="input/2" weight="0.20853092191106884"/>
				<Con from="input/3" weight="-0.19374463606079256"/>
				<Con from="input/4" weight="-0.20141671441353842"/>
				<Con from="input/5" weight="-0.18058260022435949"/>
				<Con from="input/6" weight="0.20654441837010293"/>
				<Con from="input/7" weight="0.07218765075856755"/>
				<Con from="input/8" weight="-0.1803270604848703"/>
				<Con from="input/9" weight="-0.030550543549669"/>
				<Con from="input/10" weight="-0.18846683044800916"/>
				<Con from="input/11" weight="-0.21560783099236766"/>
				<Con from="input/12" weight="-0.006987042070068479"/>
				<Con from="input/13" weight="-0.02128566988047383"/>
			</Neuron>
			<Neuron id="1/93" bias="-0.2030094176255725">
				<Con from="input/1" weight="0.20095086628884903"/>
				<Con from="input/2" weight="-0.1788862144513086"/>
				<Con from="input/3" weight="0.043992723146165265"/>
				<Con from="input/4" weight="-0.07036458011173215"/>
				<Con from="input/5" weight="-0.1594921525779213"/>
				<Con from="input/6" weight="-0.12972978293206433"/>
				<Con from="input/7" weight="0.011243431995786908"/>
				<Con from="input/8" weight="0.07943667539708427"/>
				<Con from="input/9" weight="-0.006731420038631323"/>
				<Con from="input/10" weight="0.14460928224489553"/>
				<Con from="input/11" weight="0.07705446564661331"/>
				<Con from="input/12" weight="-0.056753168068907414"/>
				<Con from="input/13" weight="0.19754739331758125"/>
			</Neuron>
			<Neuron id="1/94" bias="0.0682509776595554">
				<Con from="input/1" weight="0.12075044823957495"/>
				<Con from="input/2" weight="0.11148557614937346"/>
				<Con from="input/3" weight="-0.18502879827076715"/>
				<Con from="input/4" weight="0.17441398673463437"/>
				<Con from="input/5" weight="0.18953676200982733"/>
				<Con from="input/6" weight="-0.12059340377558238"/>
				<Con from="input/7" weight="-0.1363610983844207"/>
				<Con from="input/8" weight="0.14951818851652757"/>
				<Con from="input/9" weight="-0.07562930292882064"/>
				<Con from="input/10" weight="0.11092988360053457"/>
				<Con from="input/11" weight="0.11029131799586094"/>
				<Con from="input/12" weight="-0.005459324528113624"/>
				<Con from="input/13" weight="-0.1727085048783758"/>
			</Neuron>
			<Neuron id="1/95" bias="-0.14953282179098004">
				<Con from="input/1" weight="-0.0475793983418014"/>
				<Con from="input/2" weight="0.13289918690609065"/>
				<Con from="input/3" weight="0.11959674102302871"/>
				<Con from="input/4" weight="0.23696360784569903"/>
				<Con from="input/5" weight="-0.11697597180589052"/>
				<Con from="input/6" weight="0.028582078009648185"/>
				<Con from="input/7" weight="-0.007888216181635665"/>
				<Con from="input/8" weight="-0.1331847118305726"/>
				<Con from="input/9" weight="-0.057526736300797646"/>
				<Con from="input/10" weight="-0.0011243343843501854"/>
				<Con from="input/11" weight="-0.04647760234542542"/>
				<Con from="input/12" weight="-0.08512143240015463"/>
				<Con from="input/13" weight="-0.04248888468464567"/>
			</Neuron>
			<Neuron id="1/96" bias="-0.19275935514214923">
				<Con from="input/1" weight="0.019165415619082832"/>
				<Con from="input/2" weight="0.034787024938947"/>
				<Con from="input/3" weight="-0.2084007988498636"/>
				<Con from="input/4" weight="0.14881095172477798"/>
				<Con from="input/5" weight="-0.027638582284414834"/>
				<Con from="input/6" weight="-0.02201903198478348"/>
				<Con from="input/7" weight="0.040084604610171874"/>
				<Con from="input/8" weight="-0.031629702849171284"/>
				<Con from="input/9" weight="-0.1787940776296997"/>
				<Con from="input/10" weight="0.16125666707777866"/>
				<Con from="input/11" weight="0.0811765609782652"/>
				<Con from="input/12" weight="0.0109769223899574"/>
				<Con from="input/13" weight="-0.012837668982097183"/>
			</Neuron>
			<Neuron id="1/97" bias="-0.060929002325309435">
				<Con from="input/1" weight="-0.04613504787481806"/>
				<Con from="input/2" weight="0.13636497542048065"/>
				<Con from="input/3" weight="0.10337015958205556"/>
				<Con from="input/4" weight="-0.01727492541086501"/>
				<Con from="input/5" weight="0.02919331165910098"/>
				<Con from="input/6" weight="0.08483115080964884"/>
				<Con from="input/7" weight="-0.07839716153477864"/>
				<Con from="input/8" weight="0.16050076841973818"/>
				<Con from="input/9" weight="0.18892987969802807"/>
				<Con from="input/10" weight="0.10148727057863328"/>
				<Con from="input/11" weight="0.01199194157008091"/>
				<Con from="input/12" weight="0.14853971654120918"/>
				<Con from="input/13" weight="-0.21012159287206178"/>
			</Neuron>
			<Neuron id="1/98" bias="0.08856445019965871">
				<Con from="input/1" weight="-0.03650014324295988"/>
				<Con from="input/2" weight="0.03814485811171147"/>
				<Con from="input/3" weight="0.16091781896743618"/>
				<Con from="input/4" weight="0.17212252690895327"/>
				<Con from="input/5" weight="0.06026754848177621"/>
				<Con from="input/6" weight="-0.10707629455229536"/>
				<Con from="input/7" weight="-0.16003539546763207"/>
				<Con from="input/8" weight="0.09818113261644669"/>
				<Con from="input/9" weight="-0.1828451919344057"/>
				<Con from="input/10" weight="-0.13094490194211436"/>
				<Con from="input/11" weight="0.04372207152683289"/>
				<Con from="input/12" weight="-0.0015090566327294712"/>
				<Con from="input/13" weight="-0.23271022006239692"/>
			</Neuron>
			<Neuron id="1/99" bias="-0.05508896365433727">
				<Con from="input/1" weight="0.03819794124228579"/>
				<Con from="input/2" weight="-0.18019334134318296"/>
				<Con from="input/3" weight="0.13158101285923615"/>
				<Con from="input/4" weight="-0.15639604919987363"/>
				<Con from="input/5" weight="-0.17900239445418564"/>
				<Con from="input/6" weight="0.16243186012965427"/>
				<Con from="input/7" weight="-0.193746577834276"/>
				<Con from="input/8" weight="0.10129145308455374"/>
				<Con from="input/9" weight="0.038534834563245426"/>
				<Con from="input/10" weight="0.1075238168370338"/>
				<Con from="input/11" weight="-0.08279137612955814"/>
				<Con from="input/12" weight="-0.0703034357147923"/>
				<Con from="input/13" weight="-0.026699484867375216"/>
			</Neuron>
			<Neuron id="1/100" bias="0.22198404930069704">
				<Con from="input/1" weight="-0.07834162117685776"/>
				<Con from="input/2" weight="-0.14996125121019593"/>
				<Con from="input/3" weight="0.175412615276203"/>
				<Con from="input/4" weight="-0.035094995227937034"/>
				<Con from="input/5" weight="0.18677477189036332"/>
				<Con from="input/6" weight="0.19234113161463945"/>
				<Con from="input/7" weight="0.10400793713969941"/>
				<Con from="input/8" weight="0.17423163259908245"/>
				<Con from="input/9" weight="0.1936913535634412"/>
				<Con from="input/10" weight="0.16814877064292708"/>
				<Con from="input/11" weight="-0.027179587276152245"/>
				<Con from="input/12" weight="-0.0849240627372339"/>
				<Con from="input/13" weight="0.16720534660188272"/>
			</Neuron>
		</NeuralLayer>
		<NeuralLayer>
			<Neuron id="2/1" bias="-0.19317631127036816">
				<Con from="1/1" weight="0.0024339126062967735"/>
				<Con from="1/2" weight="0.15977548680663214"/>
				<Con from="1/3" weight="0.09069410151772399"/>
				<Con from="1/4" weight="-0.12720737556945266"/>
				<Con from="1/5" weight="-0.055405661075886646"/>
				<Con from="1/6" weight="0.09353195961263712"/>
				<Con from="1/7" weight="-0.08789057727788463"/>
				<Con from="1/8" weight="0.10754995602738363"/>
				<Con from="1/9" weight="0.09702514337051277"/>
				<Con from="1/10" weight="-0.11539226234064773"/>
				<Con from="1/11" weight="-0.09986391236482312"/>
				<Con from="1/12" weight="-0.10940983087320137"/>
				<Con from="1/13" weight="-0.11041020056722148"/>
				<Con from="1/14" weight="-0.11619701072586892"/>
				<Con from="1/15" weight="0.04369381632920042"/>
				<Con from="1/16" weight="-0.1632034797751973"/>
				<Con from="1/17" weight="0.011765384452002094"/>
				<Con from="1/18" weight="0.0888663221325963"/>
				<Con from="1/19" weight="-0.09383402460989491"/>
				<Con from="1/20" weight="-0.12372558248184275"/>
				<Con from="1/21" weight="-0.14038025096276138"/>
				<Con from="1/22" weight="0.033138434199657354"/>
				<Con from="1/23" weight="-0.035441151004404196"/>
				<Con from="1/24" weight="-0.0018001781370179158"/>
				<Con from="1/25" weight="-0.1584355303442913"/>
				<Con from="1/26" weight="-0.06443788614910426"/>
				<Con from="1/27" weight="-0.04106974680654775"/>
				<Con from="1/28" weight="0.17510967328239158"/>
				<Con from="1/29" weight="0.1601338233487844"/>
				<Con from="1/30" weight="-0.03214941633032061"/>
				<Con from="1/31" weight="0.05118122073124656"/>
				<Con from="1/32" weight="0.11841590036681987"/>
				<Con from="1/33" weight="0.07733122020551128"/>
				<Con from="1/34" weight="0.02286404097854215"/>
				<Con from="1/35" weight="-0.0024735026803329677"/>
				<Con from="1/36" weight="0.08078654184366105"/>
				<Con from="1/37" weight="-0.1730673505566263"/>
				<Con from="1/38" weight="-0.11392202251239457"/>
				<Con from="1/39" weight="0.03255518128376666"/>
				<Con from="1/40" weight="-0.02903703078886443"/>
				<Con from="1/41" weight="-0.11891125740152445"/>
				<Con from="1/42" weight="0.05248280938536494"/>
				<Con from="1/43" weight="0.02567411826450375"/>
				<Con from="1/44" weight="-0.09840563008545379"/>
				<Con from="1/45" weight="0.13642485564489357"/>
				<Con from="1/46" weight="-0.10003591652260163"/>
				<Con from="1/47" weight="-0.1562429413951679"/>
				<Con from="1/48" weight="-0.08542183313749872"/>
				<Con from="1/49" weight="0.1545383732575186"/>
				<Con from="1/50" weight="-0.16928466739347495"/>
				<Con from="1/51" weight="-0.04495315082709288"/>
				<Con from="1/52" weight="-0.08128676178812662"/>
				<Con from="1/53" weight="0.06349457965567844"/>
				<Con from="1/54" weight="0.05924915032599712"/>
				<Con from="1/55" weight="-0.16755623739315845"/>
				<Con from="1/56" weight="0.17563541242890396"/>
				<Con from="1/57" weight="-0.04164821697215504"/>
				<Con from="1/58" weight="-0.06815108330017396"/>
				<Con from="1/59" weight="-0.10850407092930668"/>
				<Con from="1/60" weight="0.07489942915329814"/>
				<Con from="1/61" weight="0.1259979277503444"/>
				<Con from="1/62" weight="0.1157459560291329"/>
				<Con from="1/63" weight="-0.08892601450628586"/>
				<Con from="1/64" weight="0.024903778614264335"/>
				<Con from="1/65" weight="-0.15111467587961033"/>
				<Con from="1/66" weight="-0.05789881770714013"/>
				<Con from="1/67" weight="-0.17508246461580476"/>
				<Con from="1/68" weight="-0.04362111415601357"/>
				<Con from="1/69" weight="0.08153316587840848"/>
				<Con from="1/70" weight="-0.0031615158915012324"/>
				<Con from="1/71" weight="-0.060170083845893604"/>
				<Con from="1/72" weight="0.12082230597470445"/>
				<Con from="1/73" weight="-0.1546934912746522"/>
				<Con from="1/74" weight="0.16042960312713697"/>
				<Con from="1/75" weight="-0.04990002211390071"/>
				<Con from="1/76" weight="-0.09595770916133596"/>
				<Con from="1/77" weight="-0.01904327275895902"/>
				<Con from="1/78" weight="-0.09535367276805612"/>
				<Con from="1/79" weight="0.16415292437588314"/>
				<Con from="1/80" weight="0.11371244314403026"/>
				<Con from="1/81" weight="-0.1309449001434214"/>
				<Con from="1/82" weight="-0.11812071225547253"/>
				<Con from="1/83" weight="-0.1109158655326499"/>
				<Con from="1/84" weight="0.004969533525087846"/>
				<Con from="1/85" weight="0.13953467450646306"/>
				<Con from="1/86" weight="-0.026807651108547513"/>
				<Con from="1/87" weight="0.13386475059639827"/>
				<Con from="1/88" weight="0.15416894700537326"/>
				<Con from="1/89" weight="0.12255878385091282"/>
				<Con from="1/90" weight="-0.03672302395250134"/>
				<Con from="1/91" weight="-0.09681934121600612"/>
				<Con from="1/92" weight="0.0149239820720314"/>
				<Con from="1/93" weight="0.0596447755035551"/>
				<Con from="1/94" weight="0.0064265856288598265"/>
				<Con from="1/95" weight="0.09070420211155404"/>
				<Con from="1/96" weight="0.16634191178206265"/>
				<Con from="1/97" weight="-0.1098383126050018"/>
				<Con from="1/98" weight="0.09850433740161933"/>
				<Con from="1/99" weight="-0.12753547502278856"/>
				<Con from="1/100" weight="-0.11792505170437087"/>
			</Neuron>
			<Neuron id="2/2" bias="0.04219750737558728">
				<Con from="1/1" weight="0.027783876410758256"/>
				<Con from="1/2" weight="0.018063490586366974"/>
				<Con from="1/3" weight="0.12635965303005192"/>
				<Con from="1/4" weight="0.09116933385247751"/>
				<Con from="1/5" weight="-0.029255563029258913"/>
				<Con from="1/6" weight="0.15607167181219259"/>
				<Con from="1/7" weight="0.013751053440476823"/>
				<Con from="1/8" weight="0.046739964502345306"/>
				<Con from="1/9" weight="-0.061231507652266544"/>
				<Con from="1/10" weight="0.028774424172802057"/>
				<Con from="1/11" weight="0.00825077757704375"/>
				<Con from="1/12" weight="0.14036711122262208"/>
				<Con from="1/13" weight="0.16925184768821372"/>
				<Con from="1/14" weight="-0.05190103499802114"/>
				<Con from="1/15" weight="-0.1592218942070828"/>
				<Con from="1/16" weight="0.012180716895034522"/>
				<Con from="1/17" weight="-0.10421366014926682"/>
				<Con from="1/18" weight="0.15058470074358787"/>
				<Con from="1/19" weight="-0.17581748018531898"/>
				<Con from="1/20" weight="-0.16051668150429374"/>
				<Con from="1/21" weight="-0.016313359743668064"/>
				<Con from="1/22" weight="0.014995431655482583"/>
				<Con from="1/23" weight="0.0476759241963117"/>
				<Con from="1/24" weight="0.052657029273925376"/>
				<Con from="1/25" weight="-0.15810071347251484"/>
				<Con from="1/26" weight="-0.10732608187739487"/>
				<Con from="1/27" weight="-0.0777530834814401"/>
				<Con from="1/28" weight="0.06062503544003261"/>
				<Con from="1/29" weight="-0.020991252640668173"/>
				<Con from="1/30" weight="0.052326918664763765"/>
				<Con from="1/31" weight="0.030491539226535826"/>
				<Con from="1/32" weight="-0.1752815331695938"/>
				<Con from="1/33" weight="-0.07660353508681665"/>
				<Con from="1/34" weight="-0.11373400852712896"/>
				<Con from="1/35" weight="0.15476176223095803"/>
				<Con from="1/36" weight="0.095045722721247"/>
				<Con from="1/37" weight="-0.11731715922895204"/>
				<Con from="1/38" weight="0.035578548238565086"/>
				<Con from="1/39" weight="0.004179891525920386"/>
				<Con from="1/40" weight="-0.052454681328291154"/>
				<Con from="1/41" weight="0.16273988420822935"/>
				<Con from="1/42" weight="-0.04784279891251247"/>
				<Con from="1/43" weight="-0.14151808167856814"/>
				<Con from="1/44" weight="-0.11261766072532099"/>
				<Con from="1/45" weight="0.09558995790599564"/>
				<Con from="1/46" weight="-0.061422635687927364"/>
				<Con from="1/47" weight="-0.09914690761056773"/>
				<Con from="1/48" weight="-0.1596071270972448"/>
				<Con from="1/49" weight="0.052317478088422235"/>
				<Con from="1/50" weight="0.1398287671395368"/>
				<Con from="1/51" weight="0.07827331062905256"/>
				<Con from="1/52" weight="-0.02264138660676912"/>
				<Con from="1/53" weight="-0.019868678287984786"/>
				<Con from="1/54" weight="0.0824209745537949"/>
				<Con from="1/55" weight="0.0014002247706488857"/>
				<Con from="1/56" weight="-0.1502620539291201"/>
				<Con from="1/57" weight="-0.012669281526120454"/>
				<Con from="1/58" weight="-0.013886151814733325"/>
				<Con from="1/59" weight="0.023750872899651936"/>
				<Con from="1/60" weight="-0.12059935056364186"/>
				<Con from="1/61" weight="0.13325199763095702"/>
				<Con from="1/62" weight="6.727929824434176E-4"/>
				<Con from="1/63" weight="-0.1222204110133379"/>
				<Con from="1/64" weight="0.020965337309447763"/>
				<Con from="1/65" weight="-0.06154123280148759"/>
				<Con from="1/66" weight="0.0012807649036943706"/>
				<Con from="1/67" weight="0.16645363875221242"/>
				<Con from="1/68" weight="0.07505319838237288"/>
				<Con from="1/69" weight="-7.06165583317043E-4"/>
				<Con from="1/70" weight="0.08224197723910498"/>
				<Con from="1/71" weight="0.008893427139051745"/>
				<Con from="1/72" weight="-0.05020935361138176"/>
				<Con from="1/73" weight="-0.01739378409468917"/>
				<Con from="1/74" weight="-0.05307127985382961"/>
				<Con from="1/75" weight="-0.05676203184470402"/>
				<Con from="1/76" weight="-0.054780709582719404"/>
				<Con from="1/77" weight="0.13758075326225994"/>
				<Con from="1/78" weight="-0.01607051800832423"/>
				<Con from="1/79" weight="0.003993790944047471"/>
				<Con from="1/80" weight="-0.13494172287310596"/>
				<Con from="1/81" weight="-0.06214698576208695"/>
				<Con from="1/82" weight="0.15054836591253348"/>
				<Con from="1/83" weight="-0.0714788636505555"/>
				<Con from="1/84" weight="0.16332954682633022"/>
				<Con from="1/85" weight="-0.1749673423033303"/>
				<Con from="1/86" weight="0.05075429622362319"/>
				<Con from="1/87" weight="-0.07338884947228888"/>
				<Con from="1/88" weight="0.024049031515120074"/>
				<Con from="1/89" weight="0.10960631711885144"/>
				<Con from="1/90" weight="-0.15829996449579806"/>
				<Con from="1/91" weight="0.17663693155845453"/>
				<Con from="1/92" weight="0.01644395818091022"/>
				<Con from="1/93" weight="0.17524083618906033"/>
				<Con from="1/94" weight="0.08550874875417944"/>
				<Con from="1/95" weight="-0.16819174337154938"/>
				<Con from="1/96" weight="-0.01072491239084571"/>
				<Con from="1/97" weight="-0.07661640360389796"/>
				<Con from="1/98" weight="0.10477706099193342"/>
				<Con from="1/99" weight="-0.005491769897909542"/>
				<Con from="1/100" weight="-0.09689444979394657"/>
			</Neuron>
			<Neuron id="2/3" bias="-0.11762189161254133">
				<Con from="1/1" weight="0.05765589978861084"/>
				<Con from="1/2" weight="0.12995478348376258"/>
				<Con from="1/3" weight="0.07849076158900944"/>
				<Con from="1/4" weight="-0.14215525337297225"/>
				<Con from="1/5" weight="-0.1701192414095497"/>
				<Con from="1/6" weight="0.001957768395998479"/>
				<Con from="1/7" weight="-0.036432269514588764"/>
				<Con from="1/8" weight="-0.1619043463494101"/>
				<Con from="1/9" weight="0.03382315096085538"/>
				<Con from="1/10" weight="0.17075531249469397"/>
				<Con from="1/11" weight="-0.12378137821744625"/>
				<Con from="1/12" weight="-0.013898327471158285"/>
				<Con from="1/13" weight="-0.13034368355410214"/>
				<Con from="1/14" weight="-0.0250202244034517"/>
				<Con from="1/15" weight="-0.14099115103535326"/>
				<Con from="1/16" weight="-0.15918703624926944"/>
				<Con from="1/17" weight="-0.06867139206314724"/>
				<Con from="1/18" weight="0.031046445172966668"/>
				<Con from="1/19" weight="0.08472596147788715"/>
				<Con from="1/20" weight="0.04683716342030921"/>
				<Con from="1/21" weight="-0.11381550106539891"/>
				<Con from="1/22" weight="-0.11672582613979576"/>
				<Con from="1/23" weight="-0.0044333373378479"/>
				<Con from="1/24" weight="-0.05983479017296926"/>
				<Con from="1/25" weight="0.024526077799318376"/>
				<Con from="1/26" weight="-0.11810006272280119"/>
				<Con from="1/27" weight="-0.07998617204208691"/>
				<Con from="1/28" weight="-0.09068068578159774"/>
				<Con from="1/29" weight="-0.03845562221970055"/>
				<Con from="1/30" weight="-0.14505728704379103"/>
				<Con from="1/31" weight="-0.12426465923872129"/>
				<Con from="1/32" weight="-0.06378419268915084"/>
				<Con from="1/33" weight="-0.010706712630358942"/>
				<Con from="1/34" weight="0.13030271476711264"/>
				<Con from="1/35" weight="-0.027220852147467316"/>
				<Con from="1/36" weight="-0.1546971645529035"/>
				<Con from="1/37" weight="0.08690597678167858"/>
				<Con from="1/38" weight="-0.16074054264581"/>
				<Con from="1/39" weight="-0.0918825138241866"/>
				<Con from="1/40" weight="0.08520257602856295"/>
				<Con from="1/41" weight="0.022960507105431217"/>
				<Con from="1/42" weight="0.10775134366448348"/>
				<Con from="1/43" weight="-0.09929244450503598"/>
				<Con from="1/44" weight="0.04573280116649289"/>
				<Con from="1/45" weight="0.1693575400333458"/>
				<Con from="1/46" weight="-0.014685729245569776"/>
				<Con from="1/47" weight="-0.08628919786417448"/>
				<Con from="1/48" weight="0.12576018469160974"/>
				<Con from="1/49" weight="0.07655585562618247"/>
				<Con from="1/50" weight="0.07192465766900862"/>
				<Con from="1/51" weight="0.07824702643250726"/>
				<Con from="1/52" weight="-0.09311119197554438"/>
				<Con from="1/53" weight="0.15911136160524705"/>
				<Con from="1/54" weight="0.07925325681461245"/>
				<Con from="1/55" weight="0.01807380584266423"/>
				<Con from="1/56" weight="0.05668262328941471"/>
				<Con from="1/57" weight="0.11948941242057579"/>
				<Con from="1/58" weight="-0.04288903724823693"/>
				<Con from="1/59" weight="0.16893435029063705"/>
				<Con from="1/60" weight="-0.17184181578343954"/>
				<Con from="1/61" weight="-0.11527920587256199"/>
				<Con from="1/62" weight="0.004072782022796413"/>
				<Con from="1/63" weight="0.0975963979006927"/>
				<Con from="1/64" weight="-0.01814517014888733"/>
				<Con from="1/65" weight="-0.15747057165498776"/>
				<Con from="1/66" weight="0.015814961721723902"/>
				<Con from="1/67" weight="-0.10351005106654391"/>
				<Con from="1/68" weight="-0.1735906850061752"/>
				<Con from="1/69" weight="0.05553991339490979"/>
				<Con from="1/70" weight="-0.1201055689436784"/>
				<Con from="1/71" weight="-0.06093120281816125"/>
				<Con from="1/72" weight="0.08542767870967598"/>
				<Con from="1/73" weight="-0.08396566838826347"/>
				<Con from="1/74" weight="-0.09515332570345533"/>
				<Con from="1/75" weight="-0.11333490540687897"/>
				<Con from="1/76" weight="-0.133524685547953"/>
				<Con from="1/77" weight="0.028266372206678145"/>
				<Con from="1/78" weight="0.045344910448601485"/>
				<Con from="1/79" weight="-0.05353964879315062"/>
				<Con from="1/80" weight="0.021548529710141418"/>
				<Con from="1/81" weight="0.02974027241115052"/>
				<Con from="1/82" weight="-0.1644769507885361"/>
				<Con from="1/83" weight="-0.04792471473922391"/>
				<Con from="1/84" weight="0.06908656439828591"/>
				<Con from="1/85" weight="0.01917540829658422"/>
				<Con from="1/86" weight="-0.0681104856487999"/>
				<Con from="1/87" weight="0.15103258468563385"/>
				<Con from="1/88" weight="0.01937546472015759"/>
				<Con from="1/89" weight="0.07272543282875521"/>
				<Con from="1/90" weight="0.06914283517838803"/>
				<Con from="1/91" weight="-0.012163071854222126"/>
				<Con from="1/92" weight="-0.16240370531017032"/>
				<Con from="1/93" weight="-0.08059480590238419"/>
				<Con from="1/94" weight="0.022549022726060353"/>
				<Con from="1/95" weight="-0.09062372279384932"/>
				<Con from="1/96" weight="0.011813260191111464"/>
				<Con from="1/97" weight="-0.10971014731486464"/>
				<Con from="1/98" weight="-0.11632701349301687"/>
				<Con from="1/99" weight="-0.09035679804254702"/>
				<Con from="1/100" weight="-0.09997785192254244"/>
			</Neuron>
			<Neuron id="2/4" bias="-0.08873158749284059">
				<Con from="1/1" weight="-0.05674602973305382"/>
				<Con from="1/2" weight="-0.006443835299513072"/>
				<Con from="1/3" weight="-0.13397943536337434"/>
				<Con from="1/4" weight="0.16335249658010442"/>
				<Con from="1/5" weight="-0.07260117682454581"/>
				<Con from="1/6" weight="-0.11370441895608124"/>
				<Con from="1/7" weight="-0.013963479735789222"/>
				<Con from="1/8" weight="-0.08999578801158942"/>
				<Con from="1/9" weight="0.14024030739108667"/>
				<Con from="1/10" weight="-0.13689798985866777"/>
				<Con from="1/11" weight="0.1380333814037559"/>
				<Con from="1/12" weight="0.0932326948219676"/>
				<Con from="1/13" weight="-0.10842489699684908"/>
